{"learner":{"attributes":{"scikit_learn":"{\"_estimator_type\": \"classifier\"}"},"feature_names":[],"feature_types":[],"gradient_booster":{"model":{"gbtree_model_param":{"num_parallel_tree":"1","num_trees":"200"},"iteration_indptr":[0,1,2,3,4,5,6,7,8,9,10,11,12,13,14,15,16,17,18,19,20,21,22,23,24,25,26,27,28,29,30,31,32,33,34,35,36,37,38,39,40,41,42,43,44,45,46,47,48,49,50,51,52,53,54,55,56,57,58,59,60,61,62,63,64,65,66,67,68,69,70,71,72,73,74,75,76,77,78,79,80,81,82,83,84,85,86,87,88,89,90,91,92,93,94,95,96,97,98,99,100,101,102,103,104,105,106,107,108,109,110,111,112,113,114,115,116,117,118,119,120,121,122,123,124,125,126,127,128,129,130,131,132,133,134,135,136,137,138,139,140,141,142,143,144,145,146,147,148,149,150,151,152,153,154,155,156,157,158,159,160,161,162,163,164,165,166,167,168,169,170,171,172,173,174,175,176,177,178,179,180,181,182,183,184,185,186,187,188,189,190,191,192,193,194,195,196,197,198,199,200],"tree_info":[0,0,0,0,0,0,0,0,0,0,0,0,0,0,0,0,0,0,0,0,0,0,0,0,0,0,0,0,0,0,0,0,0,0,0,0,0,0,0,0,0,0,0,0,0,0,0,0,0,0,0,0,0,0,0,0,0,0,0,0,0,0,0,0,0,0,0,0,0,0,0,0,0,0,0,0,0,0,0,0,0,0,0,0,0,0,0,0,0,0,0,0,0,0,0,0,0,0,0,0,0,0,0,0,0,0,0,0,0,0,0,0,0,0,0,0,0,0,0,0,0,0,0,0,0,0,0,0,0,0,0,0,0,0,0,0,0,0,0,0,0,0,0,0,0,0,0,0,0,0,0,0,0,0,0,0,0,0,0,0,0,0,0,0,0,0,0,0,0,0,0,0,0,0,0,0,0,0,0,0,0,0,0,0,0,0,0,0,0,0,0,0,0,0,0,0,0,0,0,0],"trees":[{"base_weights":[-0E0,-1.323077E0,9.6992485E-2,-6.3917524E-1,-9.607843E-2,-9.3939394E-2,8.857143E-2],"categories":[],"categories_nodes":[],"categories_segments":[],"categories_sizes":[],"default_left":[0,0,0,0,0,0,0],"id":0,"left_children":[1,3,-1,5,-1,-1,-1],"loss_changes":[2.1045877E2,1.8725616E1,0E0,7.579235E1,0E0,0E0,0E0],"parents":[2147483647,0,0,1,1,3,3],"right_children":[2,4,-1,6,-1,-1,-1],"split_conditions":[1.31E1,6.2E0,9.6992485E-2,3.4E0,-9.607843E-2,-9.3939394E-2,8.857143E-2],"split_indices":[1,1,0,1,0,0,0],"split_type":[0,0,0,0,0,0,0],"sum_hessian":[8E1,4.775E1,3.225E1,2.325E1,2.45E1,1.55E1,7.75E0],"tree_param":{"num_deleted":"0","num_feature":"6","num_nodes":"7","size_leaf_vector":"1"}},{"base_weights":[-5.4892316E-5,-1.2617918E0,9.2503086E-2,-6.087017E-1,-9.1669396E-2,-8.9716E-2,8.479866E-2],"categories":[],"categories_nodes":[],"categories_segments":[],"categories_sizes":[],"default_left":[0,0,0,0,0,0,0],"id":1,"left_children":[1,3,-1,5,-1,-1,-1],"loss_changes":[1.9099387E2,1.704309E1,0E0,6.917059E1,0E0,0E0,0E0],"parents":[2147483647,0,0,1,1,3,3],"right_children":[2,4,-1,6,-1,-1,-1],"split_conditions":[1.31E1,6.2E0,9.2503086E-2,3.4E0,-9.1669396E-2,-8.9716E-2,8.479866E-2],"split_indices":[1,1,0,1,0,0,0],"split_type":[0,0,0,0,0,0,0],"sum_hessian":[7.981849E1,4.7644222E1,3.217427E1,2.3200674E1,2.4443546E1,1.5465854E1,7.7348204E0],"tree_param":{"num_deleted":"0","num_feature":"6","num_nodes":"7","size_leaf_vector":"1"}},{"base_weights":[-1.0254403E-4,-1.2082381E0,8.85969E-2,-5.818939E-1,-8.782482E-2,-8.601486E-2,8.145218E-2],"categories":[],"categories_nodes":[],"categories_segments":[],"categories_sizes":[],"default_left":[0,0,0,0,0,0,0],"id":2,"left_children":[1,3,-1,5,-1,-1,-1],"loss_changes":[1.7407306E2,1.5580353E1,0E0,6.336523E1,0E0,0E0,0E0],"parents":[2147483647,0,0,1,1,3,3],"right_children":[2,4,-1,6,-1,-1,-1],"split_conditions":[1.31E1,6.2E0,8.85969E-2,3.4E0,-8.782482E-2,-8.601486E-2,8.145218E-2],"split_indices":[1,1,0,1,0,0,0],"split_type":[0,0,0,0,0,0,0],"sum_hessian":[7.9309654E1,4.7347446E1,3.196221E1,2.3062086E1,2.428536E1,1.537003E1,7.6920547E0],"tree_param":{"num_deleted":"0","num_feature":"6","num_nodes":"7","size_leaf_vector":"1"}},{"base_weights":[-1.4491045E-4,-1.1610551E0,8.516904E-2,-5.581183E-1,-8.444431E-2,-8.27455E-2,7.846319E-2],"categories":[],"categories_nodes":[],"categories_segments":[],"categories_sizes":[],"default_left":[0,0,0,0,0,0,0],"id":3,"left_children":[1,3,-1,5,-1,-1,-1],"loss_changes":[1.5924411E2,1.4297638E1,0E0,5.8239357E1,0E0,0E0,0E0],"parents":[2147483647,0,0,1,1,3,3],"right_children":[2,4,-1,6,-1,-1,-1],"split_conditions":[1.31E1,6.2E0,8.516904E-2,3.4E0,-8.444431E-2,-8.27455E-2,7.846319E-2],"split_indices":[1,1,0,1,0,0,0],"split_type":[0,0,0,0,0,0,0],"sum_hessian":[7.852225E1,4.6887814E1,3.1634432E1,2.2847122E1,2.4040691E1,1.5221582E1,7.625539E0],"tree_param":{"num_deleted":"0","num_feature":"6","num_nodes":"7","size_leaf_vector":"1"}},{"base_weights":[-1.8323858E-4,-1.1191822E0,8.213835E-2,-5.368774E-1,-8.1449844E-2,-7.9837024E-2,7.577661E-2],"categories":[],"categories_nodes":[],"categories_segments":[],"categories_sizes":[],"default_left":[0,0,0,0,0,0,0],"id":4,"left_children":[1,3,-1,5,-1,-1,-1],"loss_changes":[1.4615625E2,1.3164352E1,0E0,5.368508E1,0E0,0E0,0E0],"parents":[2147483647,0,0,1,1,3,3],"right_children":[2,4,-1,6,-1,-1,-1],"split_conditions":[1.31E1,6.2E0,8.213835E-2,3.4E0,-8.1449844E-2,-7.9837024E-2,7.577661E-2],"split_indices":[1,1,0,1,0,0,0],"split_type":[0,0,0,0,0,0,0],"sum_hessian":[7.7499245E1,4.62902E1,3.120905E1,2.2567234E1,2.3722963E1,1.5028528E1,7.5387063E0],"tree_param":{"num_deleted":"0","num_feature":"6","num_nodes":"7","size_leaf_vector":"1"}},{"base_weights":[-2.1885443E-4,-1.0817798E0,7.9440914E-2,-5.1777476E-1,-7.877989E-2,-7.72331E-2,7.3347926E-2],"categories":[],"categories_nodes":[],"categories_segments":[],"categories_sizes":[],"default_left":[0,0,0,0,0,0,0],"id":5,"left_children":[1,3,-1,5,-1,-1,-1],"loss_changes":[1.3453284E2,1.2156509E1,0E0,4.96162E1,0E0,0E0,0E0],"parents":[2147483647,0,0,1,1,3,3],"right_children":[2,4,-1,6,-1,-1,-1],"split_conditions":[1.31E1,6.2E0,7.9440914E-2,3.4E0,-7.877989E-2,-7.72331E-2,7.3347926E-2],"split_indices":[1,1,0,1,0,0,0],"split_type":[0,0,0,0,0,0,0],"sum_hessian":[7.627857E1,4.5576584E1,3.0701986E1,2.2232574E1,2.3344011E1,1.4797948E1,7.4346266E0],"tree_param":{"num_deleted":"0","num_feature":"6","num_nodes":"7","size_leaf_vector":"1"}},{"base_weights":[-2.5236557E-4,-1.0481745E0,7.702579E-2,-5.0049096E-1,-7.638516E-2,-7.488834E-2,7.1140744E-2],"categories":[],"categories_nodes":[],"categories_segments":[],"categories_sizes":[],"default_left":[0,0,0,0,0,0,0],"id":6,"left_children":[1,3,-1,5,-1,-1,-1],"loss_changes":[1.2415295E2,1.1255028E1,0E0,4.596298E1,0E0,0E0,0E0],"parents":[2147483647,0,0,1,1,3,3],"right_children":[2,4,-1,6,-1,-1,-1],"split_conditions":[1.31E1,6.2E0,7.702579E-2,3.4E0,-7.638516E-2,-7.488834E-2,7.1140744E-2],"split_indices":[1,1,0,1,0,0,0],"split_type":[0,0,0,0,0,0,0],"sum_hessian":[7.489362E1,4.4766388E1,3.012724E1,2.1852146E1,2.2914242E1,1.4536112E1,7.3160353E0],"tree_param":{"num_deleted":"0","num_feature":"6","num_nodes":"7","size_leaf_vector":"1"}},{"base_weights":[-2.8451445E-4,-1.0178201E0,7.485181E-2,-4.8476553E-1,-7.4225836E-2,-7.2765835E-2,6.912499E-2],"categories":[],"categories_nodes":[],"categories_segments":[],"categories_sizes":[],"default_left":[0,0,0,0,0,0,0],"id":7,"left_children":[1,3,-1,5,-1,-1,-1],"loss_changes":[1.1483796E2,1.0444546E1,0E0,4.266842E1,0E0,0E0,0E0],"parents":[2147483647,0,0,1,1,3,3],"right_children":[2,4,-1,6,-1,-1,-1],"split_conditions":[1.31E1,6.2E0,7.485181E-2,3.4E0,-7.4225836E-2,-7.2765835E-2,6.912499E-2],"split_indices":[1,1,0,1,0,0,0],"split_type":[0,0,0,0,0,0,0],"sum_hessian":[7.337382E1,4.3876713E1,2.94971E1,2.1433908E1,2.2442806E1,1.4248541E1,7.1853676E0],"tree_param":{"num_deleted":"0","num_feature":"6","num_nodes":"7","size_leaf_vector":"1"}},{"base_weights":[-3.158108E-4,-9.9026835E-1,7.2885334E-2,-4.703838E-1,-7.226922E-2,-7.0835195E-2,6.727564E-2],"categories":[],"categories_nodes":[],"categories_segments":[],"categories_sizes":[],"default_left":[0,0,0,0,0,0,0],"id":8,"left_children":[1,3,-1,5,-1,-1,-1],"loss_changes":[1.064417E2,9.712559E0,0E0,3.9685463E1,0E0,0E0,0E0],"parents":[2147483647,0,0,1,1,3,3],"right_children":[2,4,-1,6,-1,-1,-1],"split_conditions":[1.31E1,6.2E0,7.2885334E-2,3.4E0,-7.226922E-2,-7.0835195E-2,6.727564E-2],"split_indices":[1,1,0,1,0,0,0],"split_type":[0,0,0,0,0,0,0],"sum_hessian":[7.1745E1,4.2922653E1,2.8822351E1,2.0984896E1,2.1937757E1,1.3940106E1,7.0447893E0],"tree_param":{"num_deleted":"0","num_feature":"6","num_nodes":"7","size_leaf_vector":"1"}},{"base_weights":[-3.4657592E-4,-9.651481E-1,7.109861E-2,-4.571674E-1,-7.048832E-2,-6.9071166E-2,6.557167E-2],"categories":[],"categories_nodes":[],"categories_segments":[],"categories_sizes":[],"default_left":[0,0,0,0,0,0,0],"id":9,"left_children":[1,3,-1,5,-1,-1,-1],"loss_changes":[9.8843575E1,9.048729E0,0E0,3.6974884E1,0E0,0E0,0E0],"parents":[2147483647,0,0,1,1,3,3],"right_children":[2,4,-1,6,-1,-1,-1],"split_conditions":[1.31E1,6.2E0,7.109861E-2,3.4E0,-7.048832E-2,-6.9071166E-2,6.557167E-2],"split_indices":[1,1,0,1,0,0,0],"split_type":[0,0,0,0,0,0,0],"sum_hessian":[7.002991E1,4.191746E1,2.8112446E1,2.051131E1,2.1406149E1,1.3615095E1,6.8962164E0],"tree_param":{"num_deleted":"0","num_feature":"6","num_nodes":"7","size_leaf_vector":"1"}},{"base_weights":[-3.772927E-4,-9.4214946E-1,6.946852E-2,-4.4496682E-1,-6.886063E-2,-6.74526E-2,6.399529E-2],"categories":[],"categories_nodes":[],"categories_segments":[],"categories_sizes":[],"default_left":[0,0,0,0,0,0,0],"id":10,"left_children":[1,3,-1,5,-1,-1,-1],"loss_changes":[9.194311E1,8.444508E0,0E0,3.4503746E1,0E0,0E0,0E0],"parents":[2147483647,0,0,1,1,3,3],"right_children":[2,4,-1,6,-1,-1,-1],"split_conditions":[1.31E1,6.2E0,6.946852E-2,3.4E0,-6.886063E-2,-6.74526E-2,6.399529E-2],"split_indices":[1,1,0,1,0,0,0],"split_type":[0,0,0,0,0,0,0],"sum_hessian":[6.824842E1,4.0872772E1,2.7375645E1,2.0018612E1,2.085416E1,1.3277268E1,6.7413445E0],"tree_param":{"num_deleted":"0","num_feature":"6","num_nodes":"7","size_leaf_vector":"1"}},{"base_weights":[-4.0820782E-4,-9.210112E-1,6.797565E-2,-4.336559E-1,-6.736719E-2,-6.596165E-2,6.253136E-2],"categories":[],"categories_nodes":[],"categories_segments":[],"categories_sizes":[],"default_left":[0,0,0,0,0,0,0],"id":11,"left_children":[1,3,-1,5,-1,-1,-1],"loss_changes":[8.5655876E1,7.892704E0,0E0,3.2244194E1,0E0,0E0,0E0],"parents":[2147483647,0,0,1,1,3,3],"right_children":[2,4,-1,6,-1,-1,-1],"split_conditions":[1.31E1,6.2E0,6.797565E-2,3.4E0,-6.736719E-2,-6.596165E-2,6.253136E-2],"split_indices":[1,1,0,1,0,0,0],"split_type":[0,0,0,0,0,0,0],"sum_hessian":[6.641796E1,3.9798786E1,2.6619171E1,1.9511593E1,2.0287193E1,1.2929923E1,6.5816703E0],"tree_param":{"num_deleted":"0","num_feature":"6","num_nodes":"7","size_leaf_vector":"1"}},{"base_weights":[-4.396064E-4,-9.0151185E-1,6.660356E-2,-4.2312697E-1,-6.599193E-2,-6.458315E-2,6.1166912E-2],"categories":[],"categories_nodes":[],"categories_segments":[],"categories_sizes":[],"default_left":[0,0,0,0,0,0,0],"id":12,"left_children":[1,3,-1,5,-1,-1,-1],"loss_changes":[7.991046E1,7.3872375E0,0E0,3.0172493E1,0E0,0E0,0E0],"parents":[2147483647,0,0,1,1,3,3],"right_children":[2,4,-1,6,-1,-1,-1],"split_conditions":[1.31E1,6.2E0,6.660356E-2,3.4E0,-6.599193E-2,-6.458315E-2,6.1166912E-2],"split_indices":[1,1,0,1,0,0,0],"split_type":[0,0,0,0,0,0,0],"sum_hessian":[6.455371E1,3.870441E1,2.5849302E1,1.8994452E1,1.970996E1,1.2575939E1,6.418511E0],"tree_param":{"num_deleted":"0","num_feature":"6","num_nodes":"7","size_leaf_vector":"1"}},{"base_weights":[-4.7155886E-4,-8.834621E-1,6.533824E-2,-4.1328806E-1,-6.472116E-2,-6.330408E-2,5.9890773E-2],"categories":[],"categories_nodes":[],"categories_segments":[],"categories_sizes":[],"default_left":[0,0,0,0,0,0,0],"id":13,"left_children":[1,3,-1,5,-1,-1,-1],"loss_changes":[7.464604E1,6.922945E0,0E0,2.8268293E1,0E0,0E0,0E0],"parents":[2147483647,0,0,1,1,3,3],"right_children":[2,4,-1,6,-1,-1,-1],"split_conditions":[1.31E1,6.2E0,6.533824E-2,3.4E0,-6.472116E-2,-6.330408E-2,5.9890773E-2],"split_indices":[1,1,0,1,0,0,0],"split_type":[0,0,0,0,0,0,0],"sum_hessian":[6.2668903E1,3.75974E1,2.50715E1,1.8470854E1,1.9126549E1,1.2217831E1,6.253022E0],"tree_param":{"num_deleted":"0","num_feature":"6","num_nodes":"7","size_leaf_vector":"1"}},{"base_weights":[-5.0457823E-4,-8.6669934E-1,6.416767E-2,-4.0406007E-1,-6.354308E-2,-6.2113255E-2,5.869326E-2],"categories":[],"categories_nodes":[],"categories_segments":[],"categories_sizes":[],"default_left":[0,0,0,0,0,0,0],"id":14,"left_children":[1,3,-1,5,-1,-1,-1],"loss_changes":[6.981044E1,6.4953976E0,0E0,2.6514048E1,0E0,0E0,0E0],"parents":[2147483647,0,0,1,1,3,3],"right_children":[2,4,-1,6,-1,-1,-1],"split_conditions":[1.31E1,6.2E0,6.416767E-2,3.4E0,-6.354308E-2,-6.2113255E-2,5.869326E-2],"split_indices":[1,1,0,1,0,0,0],"split_type":[0,0,0,0,0,0,0],"sum_hessian":[6.0774975E1,3.6484497E1,2.429048E1,1.794399E1,1.8540506E1,1.1857779E1,6.0862126E0],"tree_param":{"num_deleted":"0","num_feature":"6","num_nodes":"7","size_leaf_vector":"1"}},{"base_weights":[-5.3873815E-4,-8.5108304E-1,6.3081466E-2,-3.953746E-1,-6.2447514E-2,-6.100096E-2,5.756594E-2],"categories":[],"categories_nodes":[],"categories_segments":[],"categories_sizes":[],"default_left":[0,0,0,0,0,0,0],"id":15,"left_children":[1,3,-1,5,-1,-1,-1],"loss_changes":[6.535869E1,6.100771E0,0E0,2.4894533E1,0E0,0E0,0E0],"parents":[2147483647,0,0,1,1,3,3],"right_children":[2,4,-1,6,-1,-1,-1],"split_conditions":[1.31E1,6.2E0,6.3081466E-2,3.4E0,-6.2447514E-2,-6.100096E-2,5.756594E-2],"split_indices":[1,1,0,1,0,0,0],"split_type":[0,0,0,0,0,0,0],"sum_hessian":[5.8881832E1,3.537152E1,2.3510311E1,1.741663E1,1.7954893E1,1.1497669E1,5.9189606E0],"tree_param":{"num_deleted":"0","num_feature":"6","num_nodes":"7","size_leaf_vector":"1"}},{"base_weights":[-5.7420385E-4,-8.364909E-1,6.2070627E-2,-3.8717186E-1,-6.1425615E-2,-5.9958775E-2,5.6501456E-2],"categories":[],"categories_nodes":[],"categories_segments":[],"categories_sizes":[],"default_left":[0,0,0,0,0,0,0],"id":16,"left_children":[1,3,-1,5,-1,-1,-1],"loss_changes":[6.125179E1,5.7357597E0,0E0,2.339652E1,0E0,0E0,0E0],"parents":[2147483647,0,0,1,1,3,3],"right_children":[2,4,-1,6,-1,-1,-1],"split_conditions":[1.31E1,6.2E0,6.2070627E-2,3.4E0,-6.1425615E-2,-5.9958775E-2,5.6501456E-2],"split_indices":[1,1,0,1,0,0,0],"split_type":[0,0,0,0,0,0,0],"sum_hessian":[5.6997982E1,3.4263496E1,2.273449E1,1.689116E1,1.7372337E1,1.1139128E1,5.752031E0],"tree_param":{"num_deleted":"0","num_feature":"6","num_nodes":"7","size_leaf_vector":"1"}},{"base_weights":[-6.110211E-4,-8.228162E-1,6.1127286E-2,-3.793996E-1,-6.0469646E-2,-5.897929E-2,5.5493336E-2],"categories":[],"categories_nodes":[],"categories_segments":[],"categories_sizes":[],"default_left":[0,0,0,0,0,0,0],"id":17,"left_children":[1,3,-1,5,-1,-1,-1],"loss_changes":[5.7455788E1,5.3974857E0,0E0,2.20084E1,0E0,0E0,0E0],"parents":[2147483647,0,0,1,1,3,3],"right_children":[2,4,-1,6,-1,-1,-1],"split_conditions":[1.31E1,6.2E0,6.1127286E-2,3.4E0,-6.0469646E-2,-5.897929E-2,5.5493336E-2],"split_indices":[1,1,0,1,0,0,0],"split_type":[0,0,0,0,0,0,0],"sum_hessian":[5.5130707E1,3.316471E1,2.1965996E1,1.6369627E1,1.6795084E1,1.07835455E1,5.586082E0],"tree_param":{"num_deleted":"0","num_feature":"6","num_nodes":"7","size_leaf_vector":"1"}},{"base_weights":[-6.49616E-4,-8.0996525E-1,6.024454E-2,-3.720123E-1,-5.9572827E-2,-5.8056016E-2,5.453589E-2],"categories":[],"categories_nodes":[],"categories_segments":[],"categories_sizes":[],"default_left":[0,0,0,0,0,0,0],"id":18,"left_children":[1,3,-1,5,-1,-1,-1],"loss_changes":[5.3940933E1,5.083418E0,0E0,2.0719976E1,0E0,0E0,0E0],"parents":[2147483647,0,0,1,1,3,3],"right_children":[2,4,-1,6,-1,-1,-1],"split_conditions":[1.31E1,6.2E0,6.024454E-2,3.4E0,-5.9572827E-2,-5.8056016E-2,5.453589E-2],"split_indices":[1,1,0,1,0,0,0],"split_type":[0,0,0,0,0,0,0],"sum_hessian":[5.328619E1,3.207883E1,2.1207357E1,1.5853791E1,1.622504E1,1.0432112E1,5.421679E0],"tree_param":{"num_deleted":"0","num_feature":"6","num_nodes":"7","size_leaf_vector":"1"}},{"base_weights":[-6.8984344E-4,-7.978555E-1,5.941632E-2,-3.6496952E-1,-5.8729168E-2,-5.7183206E-2,5.3624082E-2],"categories":[],"categories_nodes":[],"categories_segments":[],"categories_sizes":[],"default_left":[0,0,0,0,0,0,0],"id":19,"left_children":[1,3,-1,5,-1,-1,-1],"loss_changes":[5.0681095E1,4.791338E0,0E0,1.9522243E1,0E0,0E0,0E0],"parents":[2147483647,0,0,1,1,3,3],"right_children":[2,4,-1,6,-1,-1,-1],"split_conditions":[1.31E1,6.2E0,5.941632E-2,3.4E0,-5.8729168E-2,-5.7183206E-2,5.3624082E-2],"split_indices":[1,1,0,1,0,0,0],"split_type":[0,0,0,0,0,0,0],"sum_hessian":[5.146965E1,3.1008947E1,2.0460703E1,1.5345132E1,1.5663816E1,1.0085828E1,5.2593045E0],"tree_param":{"num_deleted":"0","num_feature":"6","num_nodes":"7","size_leaf_vector":"1"}},{"base_weights":[-7.320352E-4,-7.864138E-1,5.8637228E-2,-3.582357E-1,-5.7933357E-2,-5.6355786E-2,5.275345E-2],"categories":[],"categories_nodes":[],"categories_segments":[],"categories_sizes":[],"default_left":[0,0,0,0,0,0,0],"id":20,"left_children":[1,3,-1,5,-1,-1,-1],"loss_changes":[4.765319E1,4.519285E0,0E0,1.8407228E1,0E0,0E0,0E0],"parents":[2147483647,0,0,1,1,3,3],"right_children":[2,4,-1,6,-1,-1,-1],"split_conditions":[1.31E1,6.2E0,5.8637228E-2,3.4E0,-5.7933357E-2,-5.6355786E-2,5.275345E-2],"split_indices":[1,1,0,1,0,0,0],"split_type":[0,0,0,0,0,0,0],"sum_hessian":[4.968545E1,2.9957647E1,1.9727804E1,1.4844897E1,1.5112749E1,9.745532E0,5.099365E0],"tree_param":{"num_deleted":"0","num_feature":"6","num_nodes":"7","size_leaf_vector":"1"}},{"base_weights":[-7.7640417E-4,-7.755752E-1,5.7902485E-2,-3.5177907E-1,-5.718069E-2,-5.5569228E-2,5.1920027E-2],"categories":[],"categories_nodes":[],"categories_segments":[],"categories_sizes":[],"default_left":[0,0,0,0,0,0,0],"id":21,"left_children":[1,3,-1,5,-1,-1,-1],"loss_changes":[4.4836758E1,4.2655296E0,0E0,1.736784E1,0E0,0E0,0E0],"parents":[2147483647,0,0,1,1,3,3],"right_children":[2,4,-1,6,-1,-1,-1],"split_conditions":[1.31E1,6.2E0,5.7902485E-2,3.4E0,-5.718069E-2,-5.5569228E-2,5.1920027E-2],"split_indices":[1,1,0,1,0,0,0],"split_type":[0,0,0,0,0,0,0],"sum_hessian":[4.793719E1,2.8927078E1,1.9010115E1,1.435413E1,1.4572948E1,9.411923E0,4.9422054E0],"tree_param":{"num_deleted":"0","num_feature":"6","num_nodes":"7","size_leaf_vector":"1"}},{"base_weights":[-8.228906E-4,-7.6528215E-1,5.720783E-2,-3.4557194E-1,-5.6466963E-2,-5.4819502E-2,5.112029E-2],"categories":[],"categories_nodes":[],"categories_segments":[],"categories_sizes":[],"default_left":[0,0,0,0,0,0,0],"id":22,"left_children":[1,3,-1,5,-1,-1,-1],"loss_changes":[4.221365E1,4.028511E0,0E0,1.6397745E1,0E0,0E0,0E0],"parents":[2147483647,0,0,1,1,3,3],"right_children":[2,4,-1,6,-1,-1,-1],"split_conditions":[1.31E1,6.2E0,5.720783E-2,3.4E0,-5.6466963E-2,-5.4819502E-2,5.112029E-2],"split_indices":[1,1,0,1,0,0,0],"split_type":[0,0,0,0,0,0,0],"sum_hessian":[4.622782E1,2.7918991E1,1.830883E1,1.3873678E1,1.4045313E1,9.085571E0,4.788107E0],"tree_param":{"num_deleted":"0","num_feature":"6","num_nodes":"7","size_leaf_vector":"1"}},{"base_weights":[-8.7218935E-4,-7.5548244E-1,5.654942E-2,-3.3958888E-1,-5.5788387E-2,-5.4102976E-2,5.0351065E-2],"categories":[],"categories_nodes":[],"categories_segments":[],"categories_sizes":[],"default_left":[0,0,0,0,0,0,0],"id":23,"left_children":[1,3,-1,5,-1,-1,-1],"loss_changes":[3.9767574E1,3.806857E0,0E0,1.5491281E1,0E0,0E0,0E0],"parents":[2147483647,0,0,1,1,3,3],"right_children":[2,4,-1,6,-1,-1,-1],"split_conditions":[1.31E1,6.2E0,5.654942E-2,3.4E0,-5.5788387E-2,-5.4102976E-2,5.0351065E-2],"split_indices":[1,1,0,1,0,0,0],"split_type":[0,0,0,0,0,0,0],"sum_hessian":[4.455967E1,2.6934797E1,1.7624872E1,1.3404237E1,1.35305605E1,8.766933E0,4.6373034E0],"tree_param":{"num_deleted":"0","num_feature":"6","num_nodes":"7","size_leaf_vector":"1"}},{"base_weights":[-9.237754E-4,-7.461301E-1,5.592384E-2,-3.3380803E-1,-5.514158E-2,-5.3416427E-2,4.960954E-2],"categories":[],"categories_nodes":[],"categories_segments":[],"categories_sizes":[],"default_left":[0,0,0,0,0,0,0],"id":24,"left_children":[1,3,-1,5,-1,-1,-1],"loss_changes":[3.7484077E1,3.5993252E0,0E0,1.46433525E1,0E0,0E0,0E0],"parents":[2147483647,0,0,1,1,3,3],"right_children":[2,4,-1,6,-1,-1,-1],"split_conditions":[1.31E1,6.2E0,5.592384E-2,3.4E0,-5.514158E-2,-5.3416427E-2,4.960954E-2],"split_indices":[1,1,0,1,0,0,0],"split_type":[0,0,0,0,0,0,0],"sum_hessian":[4.293459E1,2.5975595E1,1.6958996E1,1.2946344E1,1.3029251E1,8.4563675E0,4.4899774E0],"tree_param":{"num_deleted":"0","num_feature":"6","num_nodes":"7","size_leaf_vector":"1"}},{"base_weights":[-9.780017E-4,-7.37183E-1,5.5327978E-2,-3.2820898E-1,-5.4523494E-2,-5.2756917E-2,4.889319E-2],"categories":[],"categories_nodes":[],"categories_segments":[],"categories_sizes":[],"default_left":[0,0,0,0,0,0,0],"id":25,"left_children":[1,3,-1,5,-1,-1,-1],"loss_changes":[3.5350082E1,3.4048128E0,0E0,1.384939E1,0E0,0E0,0E0],"parents":[2147483647,0,0,1,1,3,3],"right_children":[2,4,-1,6,-1,-1,-1],"split_conditions":[1.31E1,6.2E0,5.5327978E-2,3.4E0,-5.4523494E-2,-5.2756917E-2,4.889319E-2],"split_indices":[1,1,0,1,0,0,0],"split_type":[0,0,0,0,0,0,0],"sum_hessian":[4.1353962E1,2.5042227E1,1.6311735E1,1.2500424E1,1.2541802E1,8.154147E0,4.346277E0],"tree_param":{"num_deleted":"0","num_feature":"6","num_nodes":"7","size_leaf_vector":"1"}},{"base_weights":[-1.0354077E-3,-7.2860366E-1,5.475902E-2,-3.2277396E-1,-5.3931344E-2,-5.2121826E-2,4.819974E-2],"categories":[],"categories_nodes":[],"categories_segments":[],"categories_sizes":[],"default_left":[0,0,0,0,0,0,0],"id":26,"left_children":[1,3,-1,5,-1,-1,-1],"loss_changes":[3.335384E1,3.22231E0,0E0,1.3105249E1,0E0,0E0,0E0],"parents":[2147483647,0,0,1,1,3,3],"right_children":[2,4,-1,6,-1,-1,-1],"split_conditions":[1.31E1,6.2E0,5.475902E-2,3.4E0,-5.3931344E-2,-5.2121826E-2,4.819974E-2],"split_indices":[1,1,0,1,0,0,0],"split_type":[0,0,0,0,0,0,0],"sum_hessian":[3.981875E1,2.4135288E1,1.5683461E1,1.2066776E1,1.2068512E1,7.8604655E0,4.206311E0],"tree_param":{"num_deleted":"0","num_feature":"6","num_nodes":"7","size_leaf_vector":"1"}},{"base_weights":[-1.095655E-3,-7.2035813E-1,5.4214437E-2,-3.1748712E-1,-5.3362645E-2,-5.1508754E-2,4.752716E-2],"categories":[],"categories_nodes":[],"categories_segments":[],"categories_sizes":[],"default_left":[0,0,0,0,0,0,0],"id":27,"left_children":[1,3,-1,5,-1,-1,-1],"loss_changes":[3.1484766E1,3.0509157E0,0E0,1.2407191E1,0E0,0E0,0E0],"parents":[2147483647,0,0,1,1,3,3],"right_children":[2,4,-1,6,-1,-1,-1],"split_conditions":[1.31E1,6.2E0,5.4214437E-2,3.4E0,-5.3362645E-2,-5.1508754E-2,4.752716E-2],"split_indices":[1,1,0,1,0,0,0],"split_type":[0,0,0,0,0,0,0],"sum_hessian":[3.832961E1,2.3255178E1,1.50744295E1,1.1645612E1,1.1609567E1,7.5754557E0,4.070156E0],"tree_param":{"num_deleted":"0","num_feature":"6","num_nodes":"7","size_leaf_vector":"1"}},{"base_weights":[-1.1589114E-3,-7.124155E-1,5.369192E-2,-3.123339E-1,-5.281511E-2,-5.0915565E-2,4.6873618E-2],"categories":[],"categories_nodes":[],"categories_segments":[],"categories_sizes":[],"default_left":[0,0,0,0,0,0,0],"id":28,"left_children":[1,3,-1,5,-1,-1,-1],"loss_changes":[2.9733276E1,2.8898077E0,0E0,1.1751815E1,0E0,0E0,0E0],"parents":[2147483647,0,0,1,1,3,3],"right_children":[2,4,-1,6,-1,-1,-1],"split_conditions":[1.31E1,6.2E0,5.369192E-2,3.4E0,-5.281511E-2,-5.0915565E-2,4.6873618E-2],"split_indices":[1,1,0,1,0,0,0],"split_type":[0,0,0,0,0,0,0],"sum_hessian":[3.6886868E1,2.2402115E1,1.4484754E1,1.1237052E1,1.1165064E1,7.299188E0,3.9378636E0],"tree_param":{"num_deleted":"0","num_feature":"6","num_nodes":"7","size_leaf_vector":"1"}},{"base_weights":[-1.225797E-3,-7.047478E-1,5.3189326E-2,-3.0730155E-1,-5.2286662E-2,-5.034029E-2,4.6237476E-2],"categories":[],"categories_nodes":[],"categories_segments":[],"categories_sizes":[],"default_left":[0,0,0,0,0,0,0],"id":29,"left_children":[1,3,-1,5,-1,-1,-1],"loss_changes":[2.8090631E1,2.7382421E0,0E0,1.1136038E1,0E0,0E0,0E0],"parents":[2147483647,0,0,1,1,3,3],"right_children":[2,4,-1,6,-1,-1,-1],"split_conditions":[1.31E1,6.2E0,5.3189326E-2,3.4E0,-5.2286662E-2,-5.034029E-2,4.6237476E-2],"split_indices":[1,1,0,1,0,0,0],"split_type":[0,0,0,0,0,0,0],"sum_hessian":[3.54906E1,2.1576166E1,1.39144335E1,1.0841146E1,1.073502E1,7.031687E0,3.80946E0],"tree_param":{"num_deleted":"0","num_feature":"6","num_nodes":"7","size_leaf_vector":"1"}},{"base_weights":[-1.2955827E-3,-6.9732946E-1,5.270476E-2,-3.0237833E-1,-5.1775407E-2,-4.978116E-2,4.5617264E-2],"categories":[],"categories_nodes":[],"categories_segments":[],"categories_sizes":[],"default_left":[0,0,0,0,0,0,0],"id":30,"left_children":[1,3,-1,5,-1,-1,-1],"loss_changes":[2.654896E1,2.5955439E0,0E0,1.0557044E1,0E0,0E0,0E0],"parents":[2147483647,0,0,1,1,3,3],"right_children":[2,4,-1,6,-1,-1,-1],"split_conditions":[1.31E1,6.2E0,5.270476E-2,3.4E0,-5.1775407E-2,-4.978116E-2,4.5617264E-2],"split_indices":[1,1,0,1,0,0,0],"split_type":[0,0,0,0,0,0,0],"sum_hessian":[3.4140675E1,2.0777264E1,1.336341E1,1.0457882E1,1.0319383E1,6.7729297E0,3.6849523E0],"tree_param":{"num_deleted":"0","num_feature":"6","num_nodes":"7","size_leaf_vector":"1"}},{"base_weights":[-1.3692944E-3,-6.901375E-1,5.2236415E-2,-2.9755387E-1,-5.1279623E-2,-4.9236562E-2,4.5011643E-2],"categories":[],"categories_nodes":[],"categories_segments":[],"categories_sizes":[],"default_left":[0,0,0,0,0,0,0],"id":31,"left_children":[1,3,-1,5,-1,-1,-1],"loss_changes":[2.5101E1,2.4610949E0,0E0,1.00122595E1,0E0,0E0,0E0],"parents":[2147483647,0,0,1,1,3,3],"right_children":[2,4,-1,6,-1,-1,-1],"split_conditions":[1.31E1,6.2E0,5.2236415E-2,3.4E0,-5.1279623E-2,-4.9236562E-2,4.5011643E-2],"split_indices":[1,1,0,1,0,0,0],"split_type":[0,0,0,0,0,0,0],"sum_hessian":[3.2836723E1,2.0005222E1,1.28315E1,1.0087185E1,9.918038E0,6.522857E0,3.5643275E0],"tree_param":{"num_deleted":"0","num_feature":"6","num_nodes":"7","size_leaf_vector":"1"}},{"base_weights":[-1.4466157E-3,-6.8315107E-1,5.1782697E-2,-2.9281947E-1,-5.0797712E-2,-4.8705027E-2,4.441942E-2],"categories":[],"categories_nodes":[],"categories_segments":[],"categories_sizes":[],"default_left":[0,0,0,0,0,0,0],"id":32,"left_children":[1,3,-1,5,-1,-1,-1],"loss_changes":[2.3740204E1,2.3343258E0,0E0,9.499327E0,0E0,0E0,0E0],"parents":[2147483647,0,0,1,1,3,3],"right_children":[2,4,-1,6,-1,-1,-1],"split_conditions":[1.31E1,6.2E0,5.1782697E-2,3.4E0,-5.0797712E-2,-4.8705027E-2,4.441942E-2],"split_indices":[1,1,0,1,0,0,0],"split_type":[0,0,0,0,0,0,0],"sum_hessian":[3.1578255E1,1.9259762E1,1.2318493E1,9.728938E0,9.530824E0,6.2813826E0,3.4475553E0],"tree_param":{"num_deleted":"0","num_feature":"6","num_nodes":"7","size_leaf_vector":"1"}},{"base_weights":[-1.5276964E-3,-6.7635053E-1,5.1342096E-2,-2.8816625E-1,-5.0328225E-2,-4.8185226E-2,4.383954E-2],"categories":[],"categories_nodes":[],"categories_segments":[],"categories_sizes":[],"default_left":[0,0,0,0,0,0,0],"id":33,"left_children":[1,3,-1,5,-1,-1,-1],"loss_changes":[2.246053E1,2.2147217E0,0E0,9.016097E0,0E0,0E0,0E0],"parents":[2147483647,0,0,1,1,3,3],"right_children":[2,4,-1,6,-1,-1,-1],"split_conditions":[1.31E1,6.2E0,5.1342096E-2,3.4E0,-5.0328225E-2,-4.8185226E-2,4.383954E-2],"split_indices":[1,1,0,1,0,0,0],"split_type":[0,0,0,0,0,0,0],"sum_hessian":[3.0364622E1,1.854052E1,1.1824102E1,9.382984E0,9.1575365E0,6.0483856E0,3.334598E0],"tree_param":{"num_deleted":"0","num_feature":"6","num_nodes":"7","size_leaf_vector":"1"}},{"base_weights":[-1.6126052E-3,-6.6971856E-1,5.091324E-2,-2.83587E-1,-4.9869835E-2,-4.7675952E-2,4.327105E-2],"categories":[],"categories_nodes":[],"categories_segments":[],"categories_sizes":[],"default_left":[0,0,0,0,0,0,0],"id":34,"left_children":[1,3,-1,5,-1,-1,-1],"loss_changes":[2.1256453E1,2.1018124E0,0E0,8.560586E0,0E0,0E0,0E0],"parents":[2147483647,0,0,1,1,3,3],"right_children":[2,4,-1,6,-1,-1,-1],"split_conditions":[1.31E1,6.2E0,5.091324E-2,3.4E0,-4.9869835E-2,-4.7675952E-2,4.327105E-2],"split_indices":[1,1,0,1,0,0,0],"split_type":[0,0,0,0,0,0,0],"sum_hessian":[2.9195066E1,1.7847063E1,1.1348002E1,9.04913E0,8.797933E0,5.823728E0,3.2254024E0],"tree_param":{"num_deleted":"0","num_feature":"6","num_nodes":"7","size_leaf_vector":"1"}},{"base_weights":[-1.7014783E-3,-6.6323954E-1,5.0494857E-2,-2.7907583E-1,-4.942131E-2,-4.7176108E-2,4.2713065E-2],"categories":[],"categories_nodes":[],"categories_segments":[],"categories_sizes":[],"default_left":[0,0,0,0,0,0,0],"id":35,"left_children":[1,3,-1,5,-1,-1,-1],"loss_changes":[2.0122913E1,1.9951506E0,0E0,8.130967E0,0E0,0E0,0E0],"parents":[2147483647,0,0,1,1,3,3],"right_children":[2,4,-1,6,-1,-1,-1],"split_conditions":[1.31E1,6.2E0,5.0494857E-2,3.4E0,-4.942131E-2,-4.7176108E-2,4.2713065E-2],"split_indices":[1,1,0,1,0,0,0],"split_type":[0,0,0,0,0,0,0],"sum_hessian":[2.8068724E1,1.7178896E1,1.0889828E1,8.727154E0,8.451741E0,5.6072507E0,3.119903E0],"tree_param":{"num_deleted":"0","num_feature":"6","num_nodes":"7","size_leaf_vector":"1"}},{"base_weights":[-1.7946529E-3,-6.568982E-1,5.0085764E-2,-2.7462605E-1,-4.898152E-2,-4.668468E-2,4.2164855E-2],"categories":[],"categories_nodes":[],"categories_segments":[],"categories_sizes":[],"default_left":[0,0,0,0,0,0,0],"id":36,"left_children":[1,3,-1,5,-1,-1,-1],"loss_changes":[1.9055214E1,1.8943467E0,0E0,7.725565E0,0E0,0E0,0E0],"parents":[2147483647,0,0,1,1,3,3],"right_children":[2,4,-1,6,-1,-1,-1],"split_conditions":[1.31E1,6.2E0,5.0085764E-2,3.4E0,-4.898152E-2,-4.668468E-2,4.2164855E-2],"split_indices":[1,1,0,1,0,0,0],"split_type":[0,0,0,0,0,0,0],"sum_hessian":[2.6984646E1,1.653548E1,1.0449164E1,8.416813E0,8.118668E0,5.3987784E0,3.0180345E0],"tree_param":{"num_deleted":"0","num_feature":"6","num_nodes":"7","size_leaf_vector":"1"}},{"base_weights":[-1.8920697E-3,-6.506815E-1,4.968489E-2,-2.7023283E-1,-4.8549443E-2,-4.620078E-2,4.1625727E-2],"categories":[],"categories_nodes":[],"categories_segments":[],"categories_sizes":[],"default_left":[0,0,0,0,0,0,0],"id":37,"left_children":[1,3,-1,5,-1,-1,-1],"loss_changes":[1.804907E1,1.7990284E0,0E0,7.342831E0,0E0,0E0,0E0],"parents":[2147483647,0,0,1,1,3,3],"right_children":[2,4,-1,6,-1,-1,-1],"split_conditions":[1.31E1,6.2E0,4.968489E-2,3.4E0,-4.8549443E-2,-4.620078E-2,4.1625727E-2],"split_indices":[1,1,0,1,0,0,0],"split_type":[0,0,0,0,0,0,0],"sum_hessian":[2.5941835E1,1.591624E1,1.0025595E1,8.117845E0,7.7983956E0,5.198125E0,2.9197192E0],"tree_param":{"num_deleted":"0","num_feature":"6","num_nodes":"7","size_leaf_vector":"1"}},{"base_weights":[-1.993451E-3,-6.4457744E-1,4.9291227E-2,-2.6589212E-1,-4.8124116E-2,-4.5723584E-2,4.1095067E-2],"categories":[],"categories_nodes":[],"categories_segments":[],"categories_sizes":[],"default_left":[0,0,0,0,0,0,0],"id":38,"left_children":[1,3,-1,5,-1,-1,-1],"loss_changes":[1.7100533E1,1.7088485E0,0E0,6.981328E0,0E0,0E0,0E0],"parents":[2147483647,0,0,1,1,3,3],"right_children":[2,4,-1,6,-1,-1,-1],"split_conditions":[1.31E1,6.2E0,4.9291227E-2,3.4E0,-4.8124116E-2,-4.5723584E-2,4.1095067E-2],"split_indices":[1,1,0,1,0,0,0],"split_type":[0,0,0,0,0,0,0],"sum_hessian":[2.4939243E1,1.532056E1,9.618682E0,7.829966E0,7.490595E0,5.0050926E0,2.8248732E0],"tree_param":{"num_deleted":"0","num_feature":"6","num_nodes":"7","size_leaf_vector":"1"}},{"base_weights":[-2.0993925E-3,-6.3857454E-1,4.8903838E-2,-2.6159936E-1,-4.7704678E-2,-4.525235E-2,4.057236E-2],"categories":[],"categories_nodes":[],"categories_segments":[],"categories_sizes":[],"default_left":[0,0,0,0,0,0,0],"id":39,"left_children":[1,3,-1,5,-1,-1,-1],"loss_changes":[1.6205898E1,1.6234989E0,0E0,6.6397347E0,0E0,0E0,0E0],"parents":[2147483647,0,0,1,1,3,3],"right_children":[2,4,-1,6,-1,-1,-1],"split_conditions":[1.31E1,6.2E0,4.8903838E-2,3.4E0,-4.7704678E-2,-4.525235E-2,4.057236E-2],"split_indices":[1,1,0,1,0,0,0],"split_type":[0,0,0,0,0,0,0],"sum_hessian":[2.3975761E1,1.4747812E1,9.227948E0,7.552891E0,7.1949215E0,4.8194766E0,2.7334144E0],"tree_param":{"num_deleted":"0","num_feature":"6","num_nodes":"7","size_leaf_vector":"1"}},{"base_weights":[-2.2100701E-3,-6.3266337E-1,4.8521873E-2,-2.5735235E-1,-4.729032E-2,-4.478642E-2,4.00571E-2],"categories":[],"categories_nodes":[],"categories_segments":[],"categories_sizes":[],"default_left":[0,0,0,0,0,0,0],"id":40,"left_children":[1,3,-1,5,-1,-1,-1],"loss_changes":[1.5361794E1,1.5426779E0,0E0,6.3168125E0,0E0,0E0,0E0],"parents":[2147483647,0,0,1,1,3,3],"right_children":[2,4,-1,6,-1,-1,-1],"split_conditions":[1.31E1,6.2E0,4.8521873E-2,3.4E0,-4.729032E-2,-4.478642E-2,4.00571E-2],"split_indices":[1,1,0,1,0,0,0],"split_type":[0,0,0,0,0,0,0],"sum_hessian":[2.3050264E1,1.4197339E1,8.852925E0,7.286315E0,6.911024E0,4.641067E0,2.6452482E0],"tree_param":{"num_deleted":"0","num_feature":"6","num_nodes":"7","size_leaf_vector":"1"}},{"base_weights":[-2.3245583E-3,-6.2683433E-1,4.8144538E-2,-2.531474E-1,-4.688032E-2,-4.4325206E-2,3.9548893E-2],"categories":[],"categories_nodes":[],"categories_segments":[],"categories_sizes":[],"default_left":[0,0,0,0,0,0,0],"id":41,"left_children":[1,3,-1,5,-1,-1,-1],"loss_changes":[1.4565089E1,1.4661198E0,0E0,6.0114307E0,0E0,0E0,0E0],"parents":[2147483647,0,0,1,1,3,3],"right_children":[2,4,-1,6,-1,-1,-1],"split_conditions":[1.31E1,6.2E0,4.8144538E-2,3.4E0,-4.688032E-2,-4.4325206E-2,3.9548893E-2],"split_indices":[1,1,0,1,0,0,0],"split_type":[0,0,0,0,0,0,0],"sum_hessian":[2.216163E1,1.3668481E1,8.493151E0,7.0299335E0,6.638547E0,4.469647E0,2.5602865E0],"tree_param":{"num_deleted":"0","num_feature":"6","num_nodes":"7","size_leaf_vector":"1"}},{"base_weights":[-2.443016E-3,-6.21079E-1,4.7771115E-2,-2.4898206E-1,-4.6474006E-2,-4.386817E-2,3.9047386E-2],"categories":[],"categories_nodes":[],"categories_segments":[],"categories_sizes":[],"default_left":[0,0,0,0,0,0,0],"id":42,"left_children":[1,3,-1,5,-1,-1,-1],"loss_changes":[1.38128605E1,1.3935738E0,0E0,5.7225275E0,0E0,0E0,0E0],"parents":[2147483647,0,0,1,1,3,3],"right_children":[2,4,-1,6,-1,-1,-1],"split_conditions":[1.31E1,6.2E0,4.7771115E-2,3.4E0,-4.6474006E-2,-4.386817E-2,3.9047386E-2],"split_indices":[1,1,0,1,0,0,0],"split_type":[0,0,0,0,0,0,0],"sum_hessian":[2.1308702E1,1.3160568E1,8.148134E0,6.7834387E0,6.3771296E0,4.3050013E0,2.4784372E0],"tree_param":{"num_deleted":"0","num_feature":"6","num_nodes":"7","size_leaf_vector":"1"}},{"base_weights":[-2.5661702E-3,-6.1538994E-1,4.74009E-2,-2.4485454E-1,-4.6070766E-2,-4.3414842E-2,3.855225E-2],"categories":[],"categories_nodes":[],"categories_segments":[],"categories_sizes":[],"default_left":[0,0,0,0,0,0,0],"id":43,"left_children":[1,3,-1,5,-1,-1,-1],"loss_changes":[1.3102376E1,1.3248043E0,0E0,5.4491177E0,0E0,0E0,0E0],"parents":[2147483647,0,0,1,1,3,3],"right_children":[2,4,-1,6,-1,-1,-1],"split_conditions":[1.31E1,6.2E0,4.74009E-2,3.4E0,-4.6070766E-2,-4.3414842E-2,3.855225E-2],"split_indices":[1,1,0,1,0,0,0],"split_type":[0,0,0,0,0,0,0],"sum_hessian":[2.0490307E1,1.2672926E1,7.8173795E0,6.5465174E0,6.126409E0,4.146912E0,2.399605E0],"tree_param":{"num_deleted":"0","num_feature":"6","num_nodes":"7","size_leaf_vector":"1"}},{"base_weights":[-2.6943893E-3,-6.097608E-1,4.7033265E-2,-2.407638E-1,-4.567005E-2,-4.2964805E-2,3.806319E-2],"categories":[],"categories_nodes":[],"categories_segments":[],"categories_sizes":[],"default_left":[0,0,0,0,0,0,0],"id":44,"left_children":[1,3,-1,5,-1,-1,-1],"loss_changes":[1.2431118E1,1.2595916E0,0E0,5.1902757E0,0E0,0E0,0E0],"parents":[2147483647,0,0,1,1,3,3],"right_children":[2,4,-1,6,-1,-1,-1],"split_conditions":[1.31E1,6.2E0,4.7033265E-2,3.4E0,-4.567005E-2,-4.2964805E-2,3.806319E-2],"split_indices":[1,1,0,1,0,0,0],"split_type":[0,0,0,0,0,0,0],"sum_hessian":[1.9705275E1,1.2204877E1,7.500397E0,6.3188515E0,5.886025E0,3.9951591E0,2.323692E0],"tree_param":{"num_deleted":"0","num_feature":"6","num_nodes":"7","size_leaf_vector":"1"}},{"base_weights":[-2.8266597E-3,-6.041852E-1,4.666766E-2,-2.3670807E-1,-4.5271363E-2,-4.2517703E-2,3.757999E-2],"categories":[],"categories_nodes":[],"categories_segments":[],"categories_sizes":[],"default_left":[0,0,0,0,0,0,0],"id":45,"left_children":[1,3,-1,5,-1,-1,-1],"loss_changes":[1.179676E1,1.1977348E0,0E0,4.9451513E0,0E0,0E0,0E0],"parents":[2147483647,0,0,1,1,3,3],"right_children":[2,4,-1,6,-1,-1,-1],"split_conditions":[1.31E1,6.2E0,4.666766E-2,3.4E0,-4.5271363E-2,-4.2517703E-2,3.757999E-2],"split_indices":[1,1,0,1,0,0,0],"split_type":[0,0,0,0,0,0,0],"sum_hessian":[1.8952477E1,1.17557535E1,7.196724E0,6.100134E0,5.655619E0,3.849527E0,2.250607E0],"tree_param":{"num_deleted":"0","num_feature":"6","num_nodes":"7","size_leaf_vector":"1"}},{"base_weights":[-2.9624114E-3,-5.9865767E-1,4.630357E-2,-2.3268642E-1,-4.4874247E-2,-4.2073216E-2,3.7102453E-2],"categories":[],"categories_nodes":[],"categories_segments":[],"categories_sizes":[],"default_left":[0,0,0,0,0,0,0],"id":46,"left_children":[1,3,-1,5,-1,-1,-1],"loss_changes":[1.1197116E1,1.1390438E0,0E0,4.712948E0,0E0,0E0,0E0],"parents":[2147483647,0,0,1,1,3,3],"right_children":[2,4,-1,6,-1,-1,-1],"split_conditions":[1.31E1,6.2E0,4.630357E-2,3.4E0,-4.4874247E-2,-4.2073216E-2,3.7102453E-2],"split_indices":[1,1,0,1,0,0,0],"split_type":[0,0,0,0,0,0,0],"sum_hessian":[1.8230778E1,1.1324888E1,6.9058905E0,5.8900537E0,5.434834E0,3.7097986E0,2.1802552E0],"tree_param":{"num_deleted":"0","num_feature":"6","num_nodes":"7","size_leaf_vector":"1"}},{"base_weights":[-3.1032045E-3,-5.9317344E-1,4.594048E-2,-2.2869848E-1,-4.44783E-2,-4.1631073E-2,3.6630392E-2],"categories":[],"categories_nodes":[],"categories_segments":[],"categories_sizes":[],"default_left":[0,0,0,0,0,0,0],"id":47,"left_children":[1,3,-1,5,-1,-1,-1],"loss_changes":[1.0630122E1,1.083343E0,0E0,4.492914E0,0E0,0E0,0E0],"parents":[2147483647,0,0,1,1,3,3],"right_children":[2,4,-1,6,-1,-1,-1],"split_conditions":[1.31E1,6.2E0,4.594048E-2,3.4E0,-4.44783E-2,-4.1631073E-2,3.6630392E-2],"split_indices":[1,1,0,1,0,0,0],"split_type":[0,0,0,0,0,0,0],"sum_hessian":[1.753903E1,1.0911627E1,6.627403E0,5.6883054E0,5.223322E0,3.5757627E0,2.1125426E0],"tree_param":{"num_deleted":"0","num_feature":"6","num_nodes":"7","size_leaf_vector":"1"}},{"base_weights":[-3.2472583E-3,-5.877278E-1,4.5577984E-2,-2.2474322E-1,-4.4083174E-2,-4.119106E-2,3.6163695E-2],"categories":[],"categories_nodes":[],"categories_segments":[],"categories_sizes":[],"default_left":[0,0,0,0,0,0,0],"id":48,"left_children":[1,3,-1,5,-1,-1,-1],"loss_changes":[1.0093889E1,1.0304694E0,0E0,4.284361E0,0E0,0E0,0E0],"parents":[2147483647,0,0,1,1,3,3],"right_children":[2,4,-1,6,-1,-1,-1],"split_conditions":[1.31E1,6.2E0,4.5577984E-2,3.4E0,-4.4083174E-2,-4.119106E-2,3.6163695E-2],"split_indices":[1,1,0,1,0,0,0],"split_type":[0,0,0,0,0,0,0],"sum_hessian":[1.6876146E1,1.0515325E1,6.360822E0,5.4945908E0,5.0207343E0,3.44721E0,2.0473804E0],"tree_param":{"num_deleted":"0","num_feature":"6","num_nodes":"7","size_leaf_vector":"1"}},{"base_weights":[-3.3955397E-3,-5.8231777E-1,4.521567E-2,-2.2082147E-1,-4.3688547E-2,-4.0752977E-2,3.5702202E-2],"categories":[],"categories_nodes":[],"categories_segments":[],"categories_sizes":[],"default_left":[0,0,0,0,0,0,0],"id":49,"left_children":[1,3,-1,5,-1,-1,-1],"loss_changes":[9.586636E0,9.802642E-1,0E0,4.086626E0,0E0,0E0,0E0],"parents":[2147483647,0,0,1,1,3,3],"right_children":[2,4,-1,6,-1,-1,-1],"split_conditions":[1.31E1,6.2E0,4.521567E-2,3.4E0,-4.3688547E-2,-4.0752977E-2,3.5702202E-2],"split_indices":[1,1,0,1,0,0,0],"split_type":[0,0,0,0,0,0,0],"sum_hessian":[1.6241028E1,1.0135344E1,6.1056848E0,5.308607E0,4.826736E0,3.323934E0,1.9846729E0],"tree_param":{"num_deleted":"0","num_feature":"6","num_nodes":"7","size_leaf_vector":"1"}},{"base_weights":[-3.5473828E-3,-5.7693976E-1,4.4853196E-2,-2.1693288E-1,-4.3294147E-2,-4.031668E-2,3.5245836E-2],"categories":[],"categories_nodes":[],"categories_segments":[],"categories_sizes":[],"default_left":[0,0,0,0,0,0,0],"id":50,"left_children":[1,3,-1,5,-1,-1,-1],"loss_changes":[9.106695E0,9.3258405E-1,0E0,3.8991017E0,0E0,0E0,0E0],"parents":[2147483647,0,0,1,1,3,3],"right_children":[2,4,-1,6,-1,-1,-1],"split_conditions":[1.31E1,6.2E0,4.4853196E-2,3.4E0,-4.3294147E-2,-4.031668E-2,3.5245836E-2],"split_indices":[1,1,0,1,0,0,0],"split_type":[0,0,0,0,0,0,0],"sum_hessian":[1.5632615E1,9.771062E0,5.8615527E0,5.130068E0,4.640994E0,3.2057345E0,1.9243336E0],"tree_param":{"num_deleted":"0","num_feature":"6","num_nodes":"7","size_leaf_vector":"1"}},{"base_weights":[-3.7032198E-3,-5.715905E-1,4.449023E-2,-2.1307719E-1,-4.2899743E-2,-3.9882045E-2,3.4794535E-2],"categories":[],"categories_nodes":[],"categories_segments":[],"categories_sizes":[],"default_left":[0,0,0,0,0,0,0],"id":51,"left_children":[1,3,-1,5,-1,-1,-1],"loss_changes":[8.652488E0,8.872962E-1,0E0,3.7212193E0,0E0,0E0,0E0],"parents":[2147483647,0,0,1,1,3,3],"right_children":[2,4,-1,6,-1,-1,-1],"split_conditions":[1.31E1,6.2E0,4.449023E-2,3.4E0,-4.2899743E-2,-3.9882045E-2,3.4794535E-2],"split_indices":[1,1,0,1,0,0,0],"split_type":[0,0,0,0,0,0,0],"sum_hessian":[1.5049857E1,9.421875E0,5.627982E0,4.958691E0,4.463184E0,3.092414E0,1.8662772E0],"tree_param":{"num_deleted":"0","num_feature":"6","num_nodes":"7","size_leaf_vector":"1"}},{"base_weights":[-3.8623293E-3,-5.662686E-1,4.4126503E-2,-7.498016E-1,-7.818644E-2,-1.5569716E-2,-4.250513E-2,-3.2319576E-2,2.9983694E-2],"categories":[],"categories_nodes":[],"categories_segments":[],"categories_sizes":[],"default_left":[0,0,0,0,0,0,0,0,0],"id":52,"left_children":[1,3,-1,5,7,-1,-1,-1,-1],"loss_changes":[8.222583E0,8.449774E-1,0E0,5.251217E-2,1.8793439E0,0E0,0E0,0E0,0E0],"parents":[2147483647,0,0,1,1,3,3,4,4],"right_children":[2,4,-1,6,8,-1,-1,-1,-1],"split_conditions":[1.31E1,9.41E1,4.4126503E-2,6.2E0,3.4E0,-1.5569716E-2,-4.250513E-2,-3.2319576E-2,2.9983694E-2],"split_indices":[1,3,0,1,1,0,0,0,0],"split_type":[0,0,0,0,0,0,0,0,0],"sum_hessian":[1.449175E1,9.087184E0,5.404566E0,6.214234E0,2.8729506E0,1.9212431E0,4.2929907E0,1.5881413E0,1.2848092E0],"tree_param":{"num_deleted":"0","num_feature":"6","num_nodes":"9","size_leaf_vector":"1"}},{"base_weights":[-4.8051868E-3,-5.583808E-1,4.376177E-2,-2.0516618E-1,-4.2110156E-2,-3.9181978E-2,3.4135923E-2],"categories":[],"categories_nodes":[],"categories_segments":[],"categories_sizes":[],"default_left":[0,0,0,0,0,0,0],"id":53,"left_children":[1,3,-1,5,-1,-1,-1],"loss_changes":[7.807991E0,8.129902E-1,0E0,3.4642205E0,0E0,0E0,0E0],"parents":[2147483647,0,0,1,1,3,3],"right_children":[2,4,-1,6,-1,-1,-1],"split_conditions":[1.31E1,6.2E0,4.376177E-2,3.4E0,-4.2110156E-2,-3.9181978E-2,3.4135923E-2],"split_indices":[1,1,0,1,0,0,0],"split_type":[0,0,0,0,0,0,0],"sum_hessian":[1.40241E1,8.833213E0,5.190887E0,4.703105E0,4.130108E0,2.9188368E0,1.7842683E0],"tree_param":{"num_deleted":"0","num_feature":"6","num_nodes":"7","size_leaf_vector":"1"}},{"base_weights":[-4.954149E-3,-5.531464E-1,4.3395802E-2,-2.0143047E-1,-4.1714683E-2,-3.875137E-2,3.3696897E-2],"categories":[],"categories_nodes":[],"categories_segments":[],"categories_sizes":[],"default_left":[0,0,0,0,0,0,0],"id":54,"left_children":[1,3,-1,5,-1,-1,-1],"loss_changes":[7.4229774E0,7.736342E-1,0E0,3.3084748E0,0E0,0E0,0E0],"parents":[2147483647,0,0,1,1,3,3],"right_children":[2,4,-1,6,-1,-1,-1],"split_conditions":[1.31E1,6.2E0,4.3395802E-2,3.4E0,-4.1714683E-2,-3.875137E-2,3.3696897E-2],"split_indices":[1,1,0,1,0,0,0],"split_type":[0,0,0,0,0,0,0],"sum_hessian":[1.350968E1,8.523145E0,4.9865355E0,4.5489078E0,3.974237E0,2.817397E0,1.7315103E0],"tree_param":{"num_deleted":"0","num_feature":"6","num_nodes":"7","size_leaf_vector":"1"}},{"base_weights":[-5.1053665E-3,-5.479341E-1,4.3028455E-2,-1.977298E-1,-4.1318625E-2,-3.832225E-2,3.3262778E-2],"categories":[],"categories_nodes":[],"categories_segments":[],"categories_sizes":[],"default_left":[0,0,0,0,0,0,0],"id":55,"left_children":[1,3,-1,5,-1,-1,-1],"loss_changes":[7.0583735E0,7.3623204E-1,0E0,3.1606119E0,0E0,0E0,0E0],"parents":[2147483647,0,0,1,1,3,3],"right_children":[2,4,-1,6,-1,-1,-1],"split_conditions":[1.31E1,6.2E0,4.3028455E-2,3.4E0,-4.1318625E-2,-3.832225E-2,3.3262778E-2],"split_indices":[1,1,0,1,0,0,0],"split_type":[0,0,0,0,0,0,0],"sum_hessian":[1.3017145E1,8.226002E0,4.7911434E0,4.400914E0,3.8250875E0,2.7201672E0,1.6807469E0],"tree_param":{"num_deleted":"0","num_feature":"6","num_nodes":"7","size_leaf_vector":"1"}},{"base_weights":[-5.2583097E-3,-5.427427E-1,4.2659577E-2,-7.1961826E-1,-6.823653E-2,-1.42964935E-2,-4.0921897E-2,-3.0401899E-2,2.8238108E-2],"categories":[],"categories_nodes":[],"categories_segments":[],"categories_sizes":[],"default_left":[0,0,0,0,0,0,0,0,0],"id":56,"left_children":[1,3,-1,5,7,-1,-1,-1,-1],"loss_changes":[6.7130456E0,7.013221E-1,0E0,4.0637255E-2,1.5504826E0,0E0,0E0,0E0,0E0],"parents":[2147483647,0,0,1,1,3,3,4,4],"right_children":[2,4,-1,6,8,-1,-1,-1,-1],"split_conditions":[1.31E1,9.41E1,4.2659577E-2,6.2E0,3.4E0,-1.42964935E-2,-4.0921897E-2,-3.0401899E-2,2.8238108E-2],"split_indices":[1,3,0,1,1,0,0,0,0],"split_type":[0,0,0,0,0,0,0,0,0],"sum_hessian":[1.254559E1,7.941253E0,4.6043377E0,5.4085975E0,2.5326555E0,1.7262181E0,3.6823795E0,1.3882403E0,1.1444153E0],"tree_param":{"num_deleted":"0","num_feature":"6","num_nodes":"9","size_leaf_vector":"1"}},{"base_weights":[-6.2038237E-3,-5.3510237E-1,4.2289056E-2,-1.902997E-1,-4.0524475E-2,-3.7639108E-2,3.2636333E-2],"categories":[],"categories_nodes":[],"categories_segments":[],"categories_sizes":[],"default_left":[0,0,0,0,0,0,0],"id":57,"left_children":[1,3,-1,5,-1,-1,-1],"loss_changes":[6.380028E0,6.7456484E-1,0E0,2.948877E0,0E0,0E0,0E0],"parents":[2147483647,0,0,1,1,3,3],"right_children":[2,4,-1,6,-1,-1,-1],"split_conditions":[1.31E1,6.2E0,4.2289056E-2,3.4E0,-4.0524475E-2,-3.7639108E-2,3.2636333E-2],"split_indices":[1,1,0,1,0,0,0],"split_type":[0,0,0,0,0,0,0],"sum_hessian":[1.2154172E1,7.7284245E0,4.4257474E0,4.182583E0,3.5458417E0,2.5729275E0,1.6096556E0],"tree_param":{"num_deleted":"0","num_feature":"6","num_nodes":"7","size_leaf_vector":"1"}},{"base_weights":[-6.3446886E-3,-5.299931E-1,4.1916743E-2,-1.8672289E-1,-4.0126335E-2,-3.7213918E-2,3.2214176E-2],"categories":[],"categories_nodes":[],"categories_segments":[],"categories_sizes":[],"default_left":[0,0,0,0,0,0,0],"id":58,"left_children":[1,3,-1,5,-1,-1,-1],"loss_changes":[6.07036E0,6.420312E-1,0E0,2.819046E0,0E0,0E0,0E0],"parents":[2147483647,0,0,1,1,3,3],"right_children":[2,4,-1,6,-1,-1,-1],"split_conditions":[1.31E1,6.2E0,4.1916743E-2,3.4E0,-4.0126335E-2,-3.7213918E-2,3.2214176E-2],"split_indices":[1,1,0,1,0,0,0],"split_type":[0,0,0,0,0,0,0],"sum_hessian":[1.1719549E1,7.464548E0,4.255001E0,4.0493364E0,3.4152117E0,2.485847E0,1.5634891E0],"tree_param":{"num_deleted":"0","num_feature":"6","num_nodes":"7","size_leaf_vector":"1"}},{"base_weights":[-6.4861053E-3,-5.2490324E-1,4.1542664E-2,-1.8318379E-1,-3.97275E-2,-3.679033E-2,3.1796906E-2],"categories":[],"categories_nodes":[],"categories_segments":[],"categories_sizes":[],"default_left":[0,0,0,0,0,0,0],"id":59,"left_children":[1,3,-1,5,-1,-1,-1],"loss_changes":[5.776944E0,6.1110425E-1,0E0,2.6956923E0,0E0,0E0,0E0],"parents":[2147483647,0,0,1,1,3,3],"right_children":[2,4,-1,6,-1,-1,-1],"split_conditions":[1.31E1,6.2E0,4.1542664E-2,3.4E0,-3.97275E-2,-3.679033E-2,3.1796906E-2],"split_indices":[1,1,0,1,0,0,0],"split_type":[0,0,0,0,0,0,0],"sum_hessian":[1.1303469E1,7.211675E0,4.0917935E0,3.921439E0,3.2902362E0,2.40238E0,1.5190591E0],"tree_param":{"num_deleted":"0","num_feature":"6","num_nodes":"7","size_leaf_vector":"1"}},{"base_weights":[-6.6284146E-3,-5.198329E-1,4.1166767E-2,-6.89886E-1,-5.903613E-2,-1.3118801E-2,-3.9328E-2,-2.8559705E-2,2.6587343E-2],"categories":[],"categories_nodes":[],"categories_segments":[],"categories_sizes":[],"default_left":[0,0,0,0,0,0,0,0,0],"id":60,"left_children":[1,3,-1,5,7,-1,-1,-1,-1],"loss_changes":[5.498883E0,5.837486E-1,0E0,3.0339241E-2,1.2846195E0,0E0,0E0,0E0,0E0],"parents":[2147483647,0,0,1,1,3,3,4,4],"right_children":[2,4,-1,6,8,-1,-1,-1,-1],"split_conditions":[1.31E1,9.41E1,4.1166767E-2,6.2E0,3.4E0,-1.3118801E-2,-3.9328E-2,-2.8559705E-2,2.6587343E-2],"split_indices":[1,3,0,1,1,0,0,0,0],"split_type":[0,0,0,0,0,0,0,0,0],"sum_hessian":[1.0905132E1,6.96934E0,3.935793E0,4.727528E0,2.2418118E0,1.5568566E0,3.1706712E0,1.2185721E0,1.0232396E0],"tree_param":{"num_deleted":"0","num_feature":"6","num_nodes":"9","size_leaf_vector":"1"}},{"base_weights":[-7.563788E-3,-5.1244414E-1,4.0789045E-2,-1.762308E-1,-3.892789E-2,-3.6124226E-2,3.120119E-2],"categories":[],"categories_nodes":[],"categories_segments":[],"categories_sizes":[],"default_left":[0,0,0,0,0,0,0],"id":61,"left_children":[1,3,-1,5,-1,-1,-1],"loss_changes":[5.2307744E0,5.5986214E-1,0E0,2.5205922E0,0E0,0E0,0E0],"parents":[2147483647,0,0,1,1,3,3],"right_children":[2,4,-1,6,-1,-1,-1],"split_conditions":[1.31E1,6.2E0,4.0789045E-2,3.4E0,-3.892789E-2,-3.6124226E-2,3.120119E-2],"split_indices":[1,1,0,1,0,0,0],"split_type":[0,0,0,0,0,0,0],"sum_hessian":[1.0577679E1,6.791E0,3.786679E0,3.734719E0,3.0562809E0,2.277369E0,1.45735E0],"tree_param":{"num_deleted":"0","num_feature":"6","num_nodes":"7","size_leaf_vector":"1"}},{"base_weights":[-7.689337E-3,-5.074555E-1,4.0409487E-2,-1.7281997E-1,-3.8527247E-2,-3.5705112E-2,3.0795848E-2],"categories":[],"categories_nodes":[],"categories_segments":[],"categories_sizes":[],"default_left":[0,0,0,0,0,0,0],"id":62,"left_children":[1,3,-1,5,-1,-1,-1],"loss_changes":[4.981153E0,5.329617E-1,0E0,2.4119995E0,0E0,0E0,0E0],"parents":[2147483647,0,0,1,1,3,3],"right_children":[2,4,-1,6,-1,-1,-1],"split_conditions":[1.31E1,6.2E0,4.0409487E-2,3.4E0,-3.8527247E-2,-3.5705112E-2,3.0795848E-2],"split_indices":[1,1,0,1,0,0,0],"split_type":[0,0,0,0,0,0,0],"sum_hessian":[1.0210413E1,6.566273E0,3.6441402E0,3.619434E0,2.946839E0,2.2025368E0,1.4168973E0],"tree_param":{"num_deleted":"0","num_feature":"6","num_nodes":"7","size_leaf_vector":"1"}},{"base_weights":[-7.814736E-3,-5.024874E-1,4.002818E-2,-6.668965E-1,-2.6462988E-3,-1.2272006E-2,-3.812616E-2],"categories":[],"categories_nodes":[],"categories_segments":[],"categories_sizes":[],"default_left":[0,0,0,0,0,0,0],"id":63,"left_children":[1,3,-1,5,-1,-1,-1],"loss_changes":[4.744509E0,5.0802135E-1,0E0,2.6298285E-2,0E0,0E0,0E0],"parents":[2147483647,0,0,1,1,3,3],"right_children":[2,4,-1,6,-1,-1,-1],"split_conditions":[1.31E1,9.41E1,4.002818E-2,6.2E0,-2.6462988E-3,-1.2272006E-2,-3.812616E-2],"split_indices":[1,3,0,1,0,0,0],"split_type":[0,0,0,0,0,0,0],"sum_hessian":[9.858775E0,6.3508725E0,3.5079021E0,4.2962523E0,2.0546203E0,1.4541245E0,2.8421278E0],"tree_param":{"num_deleted":"0","num_feature":"6","num_nodes":"7","size_leaf_vector":"1"}},{"base_weights":[-8.753602E-3,-4.9203405E-1,3.964515E-2,-1.6455865E-1,-3.7724745E-2,-3.5202716E-2,3.0469794E-2],"categories":[],"categories_nodes":[],"categories_segments":[],"categories_sizes":[],"default_left":[0,0,0,0,0,0,0],"id":64,"left_children":[1,3,-1,5,-1,-1,-1],"loss_changes":[4.505036E0,4.984151E-1,0E0,2.308647E0,0E0,0E0,0E0],"parents":[2147483647,0,0,1,1,3,3],"right_children":[2,4,-1,6,-1,-1,-1],"split_conditions":[1.31E1,6.2E0,3.964515E-2,3.4E0,-3.7724745E-2,-3.5202716E-2,3.0469794E-2],"split_indices":[1,1,0,1,0,0,0],"split_type":[0,0,0,0,0,0,0],"sum_hessian":[9.621156E0,6.2434855E0,3.3776703E0,3.501548E0,2.7419374E0,2.1165166E0,1.3850313E0],"tree_param":{"num_deleted":"0","num_feature":"6","num_nodes":"7","size_leaf_vector":"1"}},{"base_weights":[-8.848731E-3,-4.8720708E-1,3.9260518E-2,-1.6131893E-1,-3.732313E-2,-3.4787964E-2,3.0073354E-2],"categories":[],"categories_nodes":[],"categories_segments":[],"categories_sizes":[],"default_left":[0,0,0,0,0,0,0],"id":65,"left_children":[1,3,-1,5,-1,-1,-1],"loss_changes":[4.2930026E0,4.745189E-1,0E0,2.2103972E0,0E0,0E0,0E0],"parents":[2147483647,0,0,1,1,3,3],"right_children":[2,4,-1,6,-1,-1,-1],"split_conditions":[1.31E1,6.2E0,3.9260518E-2,3.4E0,-3.732313E-2,-3.4787964E-2,3.0073354E-2],"split_indices":[1,1,0,1,0,0,0],"split_type":[0,0,0,0,0,0,0],"sum_hessian":[9.294843E0,6.0416546E0,3.2531884E0,3.3955877E0,2.6460667E0,2.0483193E0,1.3472685E0],"tree_param":{"num_deleted":"0","num_feature":"6","num_nodes":"7","size_leaf_vector":"1"}},{"base_weights":[-8.9439405E-3,-4.8240185E-1,3.8874358E-2,-6.4429533E-1,-2.3342816E-3,-1.14805335E-2,-3.692144E-2],"categories":[],"categories_nodes":[],"categories_segments":[],"categories_sizes":[],"default_left":[0,0,0,0,0,0,0],"id":66,"left_children":[1,3,-1,5,-1,-1,-1],"loss_changes":[4.091905E0,4.5298624E-1,0E0,2.230382E-2,0E0,0E0,0E0],"parents":[2147483647,0,0,1,1,3,3],"right_children":[2,4,-1,6,-1,-1,-1],"split_conditions":[1.31E1,9.41E1,3.8874358E-2,6.2E0,-2.3342816E-3,-1.14805335E-2,-3.692144E-2],"split_indices":[1,3,0,1,0,0,0],"split_type":[0,0,0,0,0,0,0],"sum_hessian":[8.982338E0,5.8481493E0,3.1341887E0,3.9148533E0,1.9332958E0,1.3605313E0,2.554322E0],"tree_param":{"num_deleted":"0","num_feature":"6","num_nodes":"7","size_leaf_vector":"1"}},{"base_weights":[-9.835188E-3,-4.7241062E-1,3.8486723E-2,-1.5365842E-1,-3.6519837E-2,-3.429566E-2,2.9750481E-2],"categories":[],"categories_nodes":[],"categories_segments":[],"categories_sizes":[],"default_left":[0,0,0,0,0,0,0],"id":67,"left_children":[1,3,-1,5,-1,-1,-1],"loss_changes":[3.8884685E0,4.4319534E-1,0E0,2.1167102E0,0E0,0E0,0E0],"parents":[2147483647,0,0,1,1,3,3],"right_children":[2,4,-1,6,-1,-1,-1],"split_conditions":[1.31E1,6.2E0,3.8486723E-2,3.4E0,-3.6519837E-2,-3.429566E-2,2.9750481E-2],"split_indices":[1,1,0,1,0,0,0],"split_type":[0,0,0,0,0,0,0],"sum_hessian":[8.774659E0,5.754253E0,3.0204062E0,3.2877336E0,2.4665194E0,1.9705918E0,1.3171418E0],"tree_param":{"num_deleted":"0","num_feature":"6","num_nodes":"7","size_leaf_vector":"1"}},{"base_weights":[-9.898187E-3,-4.6774885E-1,3.8097925E-2,-1.5058585E-1,-3.6118478E-2,-3.3885803E-2,2.9363034E-2],"categories":[],"categories_nodes":[],"categories_segments":[],"categories_sizes":[],"default_left":[0,0,0,0,0,0,0],"id":68,"left_children":[1,3,-1,5,-1,-1,-1],"loss_changes":[3.7081468E0,4.220121E-1,0E0,2.0277643E0,0E0,0E0,0E0],"parents":[2147483647,0,0,1,1,3,3],"right_children":[2,4,-1,6,-1,-1,-1],"split_conditions":[1.31E1,6.2E0,3.8097925E-2,3.4E0,-3.6118478E-2,-3.3885803E-2,2.9363034E-2],"split_indices":[1,1,0,1,0,0,0],"split_type":[0,0,0,0,0,0,0],"sum_hessian":[8.484403E0,5.572749E0,2.9116533E0,3.1902692E0,2.3824801E0,1.9083824E0,1.2818867E0],"tree_param":{"num_deleted":"0","num_feature":"6","num_nodes":"7","size_leaf_vector":"1"}},{"base_weights":[-9.96286E-3,-4.6311048E-1,3.7707932E-2,-6.2212825E-1,-2.0502855E-3,-1.07418485E-2,-3.5717525E-2],"categories":[],"categories_nodes":[],"categories_segments":[],"categories_sizes":[],"default_left":[0,0,0,0,0,0,0],"id":69,"left_children":[1,3,-1,5,-1,-1,-1],"loss_changes":[3.537039E0,4.0398228E-1,0E0,1.8455863E-2,0E0,0E0,0E0],"parents":[2147483647,0,0,1,1,3,3],"right_children":[2,4,-1,6,-1,-1,-1],"split_conditions":[1.31E1,9.41E1,3.7707932E-2,6.2E0,-2.0502855E-3,-1.07418485E-2,-3.5717525E-2],"split_indices":[1,3,0,1,0,0,0],"split_type":[0,0,0,0,0,0,0],"sum_hessian":[8.206325E0,5.398675E0,2.80765E0,3.5771854E0,1.8214896E0,1.2751511E0,2.3020344E0],"tree_param":{"num_deleted":"0","num_feature":"6","num_nodes":"7","size_leaf_vector":"1"}},{"base_weights":[-1.079867E-2,-4.535823E-1,3.731704E-2,-1.4348845E-1,-3.531715E-2,-3.3403903E-2,2.9043807E-2],"categories":[],"categories_nodes":[],"categories_segments":[],"categories_sizes":[],"default_left":[0,0,0,0,0,0,0],"id":70,"left_children":[1,3,-1,5,-1,-1,-1],"loss_changes":[3.3640509E0,3.9373136E-1,0E0,1.942806E0,0E0,0E0,0E0],"parents":[2147483647,0,0,1,1,3,3],"right_children":[2,4,-1,6,-1,-1,-1],"split_conditions":[1.31E1,6.2E0,3.731704E-2,3.4E0,-3.531715E-2,-3.3403903E-2,2.9043807E-2],"split_indices":[1,1,0,1,0,0,0],"split_type":[0,0,0,0,0,0,0],"sum_hessian":[8.024709E0,5.316491E0,2.7082171E0,3.0914721E0,2.2250192E0,1.8380493E0,1.2534229E0],"tree_param":{"num_deleted":"0","num_feature":"6","num_nodes":"7","size_leaf_vector":"1"}},{"base_weights":[-1.0830292E-2,-4.4908834E-1,3.6925334E-2,-6.064335E-1,-1.887069E-3,-1.0256705E-2,-3.4917533E-2],"categories":[],"categories_nodes":[],"categories_segments":[],"categories_sizes":[],"default_left":[0,0,0,0,0,0,0],"id":71,"left_children":[1,3,-1,5,-1,-1,-1],"loss_changes":[3.2104838E0,3.7535787E-1,0E0,1.8463016E-2,0E0,0E0,0E0],"parents":[2147483647,0,0,1,1,3,3],"right_children":[2,4,-1,6,-1,-1,-1],"split_conditions":[1.31E1,9.41E1,3.6925334E-2,6.2E0,-1.887069E-3,-1.0256705E-2,-3.4917533E-2],"split_indices":[1,3,0,1,0,0,0],"split_type":[0,0,0,0,0,0,0],"sum_hessian":[7.7661486E0,5.1530285E0,2.6131203E0,3.3842494E0,1.7687789E0,1.2329712E0,2.1512783E0],"tree_param":{"num_deleted":"0","num_feature":"6","num_nodes":"7","size_leaf_vector":"1"}},{"base_weights":[-1.1616277E-2,-4.3986788E-1,3.653305E-2,-1.367479E-1,-3.4518864E-2,-3.292862E-2,2.8725458E-2],"categories":[],"categories_nodes":[],"categories_segments":[],"categories_sizes":[],"default_left":[0,0,0,0,0,0,0],"id":72,"left_children":[1,3,-1,5,-1,-1,-1],"loss_changes":[3.0551565E0,3.6710393E-1,0E0,1.8618869E0,0E0,0E0,0E0],"parents":[2147483647,0,0,1,1,3,3],"right_children":[2,4,-1,6,-1,-1,-1],"split_conditions":[1.31E1,6.2E0,3.653305E-2,3.4E0,-3.4518864E-2,-3.292862E-2,2.8725458E-2],"split_indices":[1,1,0,1,0,0,0],"split_type":[0,0,0,0,0,0,0],"sum_hessian":[7.599943E0,5.0777683E0,2.5221748E0,2.9971056E0,2.0806625E0,1.7714944E0,1.2256111E0],"tree_param":{"num_deleted":"0","num_feature":"6","num_nodes":"7","size_leaf_vector":"1"}},{"base_weights":[-1.1617425E-2,-4.355205E-1,3.6140304E-2,-1.3395378E-1,-3.4121316E-2,-3.2527443E-2,2.835126E-2],"categories":[],"categories_nodes":[],"categories_segments":[],"categories_sizes":[],"default_left":[0,0,0,0,0,0,0],"id":73,"left_children":[1,3,-1,5,-1,-1,-1],"loss_changes":[2.917248E0,3.496878E-1,0E0,1.7851707E0,0E0,0E0,0E0],"parents":[2147483647,0,0,1,1,3,3],"right_children":[2,4,-1,6,-1,-1,-1],"split_conditions":[1.31E1,6.2E0,3.6140304E-2,3.4E0,-3.4121316E-2,-3.2527443E-2,2.835126E-2],"split_indices":[1,1,0,1,0,0,0],"split_type":[0,0,0,0,0,0,0],"sum_hessian":[7.359291E0,4.92412E0,2.435171E0,2.9110909E0,2.0130293E0,1.7173853E0,1.1937056E0],"tree_param":{"num_deleted":"0","num_feature":"6","num_nodes":"7","size_leaf_vector":"1"}},{"base_weights":[-1.1614949E-2,-4.311988E-1,3.5747435E-2,-5.851256E-1,-1.6449079E-3,-9.600023E-3,-3.3725083E-2],"categories":[],"categories_nodes":[],"categories_segments":[],"categories_sizes":[],"default_left":[0,0,0,0,0,0,0],"id":74,"left_children":[1,3,-1,5,-1,-1,-1],"loss_changes":[2.7863297E0,3.3491266E-1,0E0,1.4795661E-2,0E0,0E0,0E0],"parents":[2147483647,0,0,1,1,3,3],"right_children":[2,4,-1,6,-1,-1,-1],"split_conditions":[1.31E1,9.41E1,3.5747435E-2,6.2E0,-1.6449079E-3,-9.600023E-3,-3.3725083E-2],"split_indices":[1,3,0,1,0,0,0],"split_type":[0,0,0,0,0,0,0],"sum_hessian":[7.1286187E0,4.7766623E0,2.3519561E0,3.1069133E0,1.6697493E0,1.158671E0,1.9482422E0],"tree_param":{"num_deleted":"0","num_feature":"6","num_nodes":"7","size_leaf_vector":"1"}},{"base_weights":[-1.23452945E-2,-4.224371E-1,3.535452E-2,-1.277158E-1,-3.333035E-2,-3.206302E-2,2.803729E-2],"categories":[],"categories_nodes":[],"categories_segments":[],"categories_sizes":[],"default_left":[0,0,0,0,0,0,0],"id":75,"left_children":[1,3,-1,5,-1,-1,-1],"loss_changes":[2.653956E0,3.2581353E-1,0E0,1.7117479E0,0E0,0E0,0E0],"parents":[2147483647,0,0,1,1,3,3],"right_children":[2,4,-1,6,-1,-1,-1],"split_conditions":[1.31E1,6.2E0,3.535452E-2,3.4E0,-3.333035E-2,-3.206302E-2,2.803729E-2],"split_indices":[1,1,0,1,0,0,0],"split_type":[0,0,0,0,0,0,0],"sum_hessian":[6.9829755E0,4.710643E0,2.2723327E0,2.8244717E0,1.8861711E0,1.6570143E0,1.1674575E0],"tree_param":{"num_deleted":"0","num_feature":"6","num_nodes":"7","size_leaf_vector":"1"}},{"base_weights":[-1.2314525E-2,-4.1826165E-1,3.4961727E-2,-5.7013553E-1,-1.5084274E-3,-9.172209E-3,-3.2937303E-2],"categories":[],"categories_nodes":[],"categories_segments":[],"categories_sizes":[],"default_left":[0,0,0,0,0,0,0],"id":76,"left_children":[1,3,-1,5,-1,-1,-1],"loss_changes":[2.5362556E0,3.112123E-1,0E0,1.4462948E-2,0E0,0E0,0E0],"parents":[2147483647,0,0,1,1,3,3],"right_children":[2,4,-1,6,-1,-1,-1],"split_conditions":[1.31E1,9.41E1,3.4961727E-2,6.2E0,-1.5084274E-3,-9.172209E-3,-3.2937303E-2],"split_indices":[1,3,0,1,0,0,0],"split_type":[0,0,0,0,0,0,0],"sum_hessian":[6.7679863E0,4.571865E0,2.1961215E0,2.9488225E0,1.6230423E0,1.1221318E0,1.8266907E0],"tree_param":{"num_deleted":"0","num_feature":"6","num_nodes":"7","size_leaf_vector":"1"}},{"base_weights":[-1.299525E-2,-4.0980396E-1,3.456941E-2,-1.2179319E-1,-3.2546125E-2,-3.1605314E-2,2.7724652E-2],"categories":[],"categories_nodes":[],"categories_segments":[],"categories_sizes":[],"default_left":[0,0,0,0,0,0,0],"id":77,"left_children":[1,3,-1,5,-1,-1,-1],"loss_changes":[2.4172165E0,3.0345285E-1,0E0,1.6417965E0,0E0,0E0,0E0],"parents":[2147483647,0,0,1,1,3,3],"right_children":[2,4,-1,6,-1,-1,-1],"split_conditions":[1.31E1,6.2E0,3.456941E-2,3.4E0,-3.2546125E-2,-3.1605314E-2,2.7724652E-2],"split_indices":[1,1,0,1,0,0,0],"split_type":[0,0,0,0,0,0,0],"sum_hessian":[6.6344943E0,4.5112996E0,2.123195E0,2.7416165E0,1.7696829E0,1.5997795E0,1.141837E0],"tree_param":{"num_deleted":"0","num_feature":"6","num_nodes":"7","size_leaf_vector":"1"}},{"base_weights":[-1.2930998E-2,-4.0577388E-1,3.417776E-2,-1.1925853E-1,-3.2156993E-2,-3.1214153E-2,2.7363956E-2],"categories":[],"categories_nodes":[],"categories_segments":[],"categories_sizes":[],"default_left":[0,0,0,0,0,0,0],"id":78,"left_children":[1,3,-1,5,-1,-1,-1],"loss_changes":[2.3113713E0,2.8922665E-1,0E0,1.5755397E0,0E0,0E0,0E0],"parents":[2147483647,0,0,1,1,3,3],"right_children":[2,4,-1,6,-1,-1,-1],"split_conditions":[1.31E1,6.2E0,3.417776E-2,3.4E0,-3.2156993E-2,-3.1214153E-2,2.7363956E-2],"split_indices":[1,1,0,1,0,0,0],"split_type":[0,0,0,0,0,0,0],"sum_hessian":[6.433957E0,4.380563E0,2.053394E0,2.6655293E0,1.7150338E0,1.5525682E0,1.1129609E0],"tree_param":{"num_deleted":"0","num_feature":"6","num_nodes":"7","size_leaf_vector":"1"}},{"base_weights":[-1.286615E-2,-4.0177274E-1,3.378695E-2,-5.4982454E-1,-1.3026474E-3,-8.589775E-3,-3.1770084E-2],"categories":[],"categories_nodes":[],"categories_segments":[],"categories_sizes":[],"default_left":[0,0,0,0,0,0,0],"id":79,"left_children":[1,3,-1,5,-1,-1,-1],"loss_changes":[2.2108035E0,2.779894E-1,0E0,1.1180282E-2,0E0,0E0,0E0],"parents":[2147483647,0,0,1,1,3,3],"right_children":[2,4,-1,6,-1,-1,-1],"split_conditions":[1.31E1,9.41E1,3.378695E-2,6.2E0,-1.3026474E-3,-8.589775E-3,-3.1770084E-2],"split_indices":[1,3,0,1,0,0,0],"split_type":[0,0,0,0,0,0,0],"sum_hessian":[6.241553E0,4.2549863E0,1.9865665E0,2.7198453E0,1.5351409E0,1.05721E0,1.6626353E0],"tree_param":{"num_deleted":"0","num_feature":"6","num_nodes":"7","size_leaf_vector":"1"}},{"base_weights":[-1.3493479E-2,-3.9375988E-1,3.3397038E-2,-1.1378178E-1,-3.1385563E-2,-3.0767752E-2,2.705637E-2],"categories":[],"categories_nodes":[],"categories_segments":[],"categories_sizes":[],"default_left":[0,0,0,0,0,0,0],"id":80,"left_children":[1,3,-1,5,-1,-1,-1],"loss_changes":[2.1090913E0,2.69296E-1,0E0,1.5120224E0,0E0,0E0,0E0],"parents":[2147483647,0,0,1,1,3,3],"right_children":[2,4,-1,6,-1,-1,-1],"split_conditions":[1.31E1,6.2E0,3.3397038E-2,3.4E0,-3.1385563E-2,-3.0767752E-2,2.705637E-2],"split_indices":[1,1,0,1,0,0,0],"split_type":[0,0,0,0,0,0,0],"sum_hessian":[6.1242533E0,4.2017026E0,1.9225509E0,2.5893188E0,1.6123837E0,1.500518E0,1.0888008E0],"tree_param":{"num_deleted":"0","num_feature":"6","num_nodes":"7","size_leaf_vector":"1"}},{"base_weights":[-1.33991735E-2,-3.8990232E-1,3.3008512E-2,-5.356263E-1,-1.1888732E-3,-8.213137E-3,-3.100361E-2],"categories":[],"categories_nodes":[],"categories_segments":[],"categories_sizes":[],"default_left":[0,0,0,0,0,0,0],"id":81,"left_children":[1,3,-1,5,-1,-1,-1],"loss_changes":[2.018535E0,2.5847143E-1,0E0,1.0715008E-2,0E0,0E0,0E0],"parents":[2147483647,0,0,1,1,3,3],"right_children":[2,4,-1,6,-1,-1,-1],"split_conditions":[1.31E1,9.41E1,3.3008512E-2,6.2E0,-1.1888732E-3,-8.213137E-3,-3.100361E-2],"split_indices":[1,3,0,1,0,0,0],"split_type":[0,0,0,0,0,0,0],"sum_hessian":[5.944503E0,4.083244E0,1.861259E0,2.589584E0,1.4936597E0,1.0254029E0,1.5641812E0],"tree_param":{"num_deleted":"0","num_feature":"6","num_nodes":"7","size_leaf_vector":"1"}},{"base_weights":[-1.3976876E-2,-3.821832E-1,3.262139E-2,-1.08581E-1,-3.0624375E-2,-3.0328149E-2,2.6750585E-2],"categories":[],"categories_nodes":[],"categories_segments":[],"categories_sizes":[],"default_left":[0,0,0,0,0,0,0],"id":82,"left_children":[1,3,-1,5,-1,-1,-1],"loss_changes":[1.9269209E0,2.507128E-1,0E0,1.4514917E0,0E0,0E0,0E0],"parents":[2147483647,0,0,1,1,3,3],"right_children":[2,4,-1,6,-1,-1,-1],"split_conditions":[1.31E1,6.2E0,3.262139E-2,3.4E0,-3.0624375E-2,-3.0328149E-2,2.6750585E-2],"split_indices":[1,1,0,1,0,0,0],"split_type":[0,0,0,0,0,0,0],"sum_hessian":[5.8367925E0,4.0342574E0,1.802535E0,2.516324E0,1.5179335E0,1.4510813E0,1.0652429E0],"tree_param":{"num_deleted":"0","num_feature":"6","num_nodes":"7","size_leaf_vector":"1"}},{"base_weights":[-1.385637E-2,-3.784686E-1,3.2235917E-2,-2.6088512E-2,-1.0829506E-3],"categories":[],"categories_nodes":[],"categories_segments":[],"categories_sizes":[],"default_left":[0,0,0,0,0],"id":83,"left_children":[1,3,-1,-1,-1],"loss_changes":[1.8453144E0,2.4038792E-1,0E0,0E0,0E0],"parents":[2147483647,0,0,1,1],"right_children":[2,4,-1,-1,-1],"split_conditions":[1.31E1,9.41E1,3.2235917E-2,-2.6088512E-2,-1.0829506E-3],"split_indices":[1,3,0,0,0],"split_type":[0,0,0,0,0],"sum_hessian":[5.6686635E0,3.9223962E0,1.7462672E0,2.4686267E0,1.4537694E0],"tree_param":{"num_deleted":"0","num_feature":"6","num_nodes":"5","size_leaf_vector":"1"}},{"base_weights":[-1.254554E-2,-3.6852792E-1,3.1852365E-2,-9.855883E-2,-2.9926097E-2,-2.9790172E-2,2.6526043E-2],"categories":[],"categories_nodes":[],"categories_segments":[],"categories_sizes":[],"default_left":[0,0,0,0,0,0,0],"id":84,"left_children":[1,3,-1,5,-1,-1,-1],"loss_changes":[1.7540586E0,2.4387479E-1,0E0,1.3924516E0,0E0,0E0,0E0],"parents":[2147483647,0,0,1,1,3,3],"right_children":[2,4,-1,6,-1,-1,-1],"split_conditions":[1.31E1,6.2E0,3.1852365E-2,3.4E0,-2.9926097E-2,-2.9790172E-2,2.6526043E-2],"split_indices":[1,1,0,1,0,0,0],"split_type":[0,0,0,0,0,0,0],"sum_hessian":[5.57008E0,3.8777297E0,1.69235E0,2.4409952E0,1.4367344E0,1.3928998E0,1.0480955E0],"tree_param":{"num_deleted":"0","num_feature":"6","num_nodes":"7","size_leaf_vector":"1"}},{"base_weights":[-1.2424838E-2,-3.6499467E-1,3.147084E-2,-9.646144E-2,-2.9555464E-2,-2.9415442E-2,2.618215E-2],"categories":[],"categories_nodes":[],"categories_segments":[],"categories_sizes":[],"default_left":[0,0,0,0,0,0,0],"id":85,"left_children":[1,3,-1,5,-1,-1,-1],"loss_changes":[1.68088E0,2.3273295E-1,0E0,1.3378538E0,0E0,0E0,0E0],"parents":[2147483647,0,0,1,1,3,3],"right_children":[2,4,-1,6,-1,-1,-1],"split_conditions":[1.31E1,6.2E0,3.147084E-2,3.4E0,-2.9555464E-2,-2.9415442E-2,2.618215E-2],"split_indices":[1,1,0,1,0,0,0],"split_type":[0,0,0,0,0,0,0],"sum_hessian":[5.412659E0,3.7719967E0,1.6406624E0,2.376397E0,1.3955997E0,1.3538446E0,1.0225523E0],"tree_param":{"num_deleted":"0","num_feature":"6","num_nodes":"7","size_leaf_vector":"1"}},{"base_weights":[-1.2304487E-2,-3.614909E-1,3.1091554E-2,-4.7201747E-3,-2.918811E-2],"categories":[],"categories_nodes":[],"categories_segments":[],"categories_sizes":[],"default_left":[0,0,0,0,0],"id":86,"left_children":[1,3,-1,-1,-1],"loss_changes":[1.6112603E0,2.2214758E-1,0E0,0E0,0E0],"parents":[2147483647,0,0,1,1],"right_children":[2,4,-1,-1,-1],"split_conditions":[1.31E1,6.2E0,3.1091554E-2,-4.7201747E-3,-2.918811E-2],"split_indices":[1,1,0,0,0],"split_type":[0,0,0,0,0],"sum_hessian":[5.2614117E0,3.6703064E0,1.5911052E0,2.3142095E0,1.356097E0],"tree_param":{"num_deleted":"0","num_feature":"6","num_nodes":"5","size_leaf_vector":"1"}},{"base_weights":[-1.22811105E-2,-3.5378623E-1,3.0714625E-2,-2.8984888E-2,-9.004971E-2,2.5904303E-2,-2.8824149E-2],"categories":[],"categories_nodes":[],"categories_segments":[],"categories_sizes":[],"default_left":[0,0,0,0,0,0,0],"id":87,"left_children":[1,3,-1,-1,5,-1,-1],"loss_changes":[1.5385158E0,2.2370869E-1,0E0,0E0,1.2809178E0,0E0,0E0],"parents":[2147483647,0,0,1,1,4,4],"right_children":[2,4,-1,-1,6,-1,-1],"split_conditions":[1.31E1,3.4E0,3.0714625E-2,-2.8984888E-2,6.2E0,2.5904303E-2,-2.8824149E-2],"split_indices":[1,1,0,0,1,0,0],"split_type":[0,0,0,0,0,0,0],"sum_hessian":[5.174406E0,3.6308346E0,1.5435714E0,1.3103747E0,2.3204598E0,1.0023086E0,1.3181512E0],"tree_param":{"num_deleted":"0","num_feature":"6","num_nodes":"7","size_leaf_vector":"1"}},{"base_weights":[-1.214431E-2,-3.5043135E-1,3.0340359E-2,-2.8618446E-2,-8.809509E-2,1.6666321E-2,-2.558817E-2],"categories":[],"categories_nodes":[],"categories_segments":[],"categories_sizes":[],"default_left":[0,0,0,0,0,0,0],"id":88,"left_children":[1,3,-1,-1,5,-1,-1],"loss_changes":[1.4757596E0,2.1359003E-1,0E0,0E0,7.5264436E-1,0E0,0E0],"parents":[2147483647,0,0,1,1,4,4],"right_children":[2,4,-1,-1,6,-1,-1],"split_conditions":[1.31E1,3.4E0,3.0340359E-2,-2.8618446E-2,6.7E0,1.6666321E-2,-2.558817E-2],"split_indices":[1,1,0,0,1,0,0],"split_type":[0,0,0,0,0,0,0],"sum_hessian":[5.032552E0,3.534569E0,1.4979829E0,1.2745123E0,2.2600567E0,1.2399348E0,1.0201219E0],"tree_param":{"num_deleted":"0","num_feature":"6","num_nodes":"7","size_leaf_vector":"1"}},{"base_weights":[-1.2987147E-2,-3.4673432E-1,2.9968759E-2,-4.2198435E-3,-2.8252969E-2],"categories":[],"categories_nodes":[],"categories_segments":[],"categories_sizes":[],"default_left":[0,0,0,0,0],"id":89,"left_children":[1,3,-1,-1,-1],"loss_changes":[1.417385E0,2.0799327E-1,0E0,0E0,0E0],"parents":[2147483647,0,0,1,1],"right_children":[2,4,-1,-1,-1],"split_conditions":[1.31E1,6.2E0,2.9968759E-2,-4.2198435E-3,-2.8252969E-2],"split_indices":[1,1,0,0,0],"split_type":[0,0,0,0,0],"sum_hessian":[4.9183645E0,3.4641333E0,1.4542315E0,2.2032695E0,1.2608637E0],"tree_param":{"num_deleted":"0","num_feature":"6","num_nodes":"5","size_leaf_vector":"1"}},{"base_weights":[-1.2902842E-2,-3.3947554E-1,2.9600242E-2,-2.820248E-2,-3.8008739E-3],"categories":[],"categories_nodes":[],"categories_segments":[],"categories_sizes":[],"default_left":[0,0,0,0,0],"id":90,"left_children":[1,3,-1,-1,-1],"loss_changes":[1.3548316E0,2.1915013E-1,0E0,0E0,0E0],"parents":[2147483647,0,0,1,1],"right_children":[2,4,-1,-1,-1],"split_conditions":[1.31E1,3.4E0,2.9600242E-2,-2.820248E-2,-3.8008739E-3],"split_indices":[1,1,0,0,0],"split_type":[0,0,0,0,0],"sum_hessian":[4.84096E0,3.4286993E0,1.4122609E0,1.235015E0,2.193684E0],"tree_param":{"num_deleted":"0","num_feature":"6","num_nodes":"5","size_leaf_vector":"1"}},{"base_weights":[-1.2810317E-2,-3.3239195E-1,2.9234638E-2,-3.5146342E-3,-2.7850553E-2],"categories":[],"categories_nodes":[],"categories_segments":[],"categories_sizes":[],"default_left":[0,0,0,0,0],"id":91,"left_children":[1,3,-1,-1,-1],"loss_changes":[1.2954806E0,2.1956858E-1,0E0,0E0,0E0],"parents":[2147483647,0,0,1,1],"right_children":[2,4,-1,-1,-1],"split_conditions":[1.31E1,6.2E0,2.9234638E-2,-3.5146342E-3,-2.7850553E-2],"split_indices":[1,1,0,0,0],"split_type":[0,0,0,0,0],"sum_hessian":[4.766575E0,3.3946204E0,1.3719547E0,2.1725261E0,1.222094E0],"tree_param":{"num_deleted":"0","num_feature":"6","num_nodes":"5","size_leaf_vector":"1"}},{"base_weights":[-1.2680334E-2,-3.2550308E-1,2.8872197E-2,-2.7800038E-2,-3.1211593E-3],"categories":[],"categories_nodes":[],"categories_segments":[],"categories_sizes":[],"default_left":[0,0,0,0,0],"id":92,"left_children":[1,3,-1,-1,-1],"loss_changes":[1.2391464E0,2.2974193E-1,0E0,0E0,0E0],"parents":[2147483647,0,0,1,1],"right_children":[2,4,-1,-1,-1],"split_conditions":[1.31E1,3.4E0,2.8872197E-2,-2.7800038E-2,-3.1211593E-3],"split_indices":[1,1,0,0,0],"split_type":[0,0,0,0,0],"sum_hessian":[4.6942687E0,3.36102E0,1.3332484E0,1.1979797E0,2.1630404E0],"tree_param":{"num_deleted":"0","num_feature":"6","num_nodes":"5","size_leaf_vector":"1"}},{"base_weights":[-1.254296E-2,-3.187843E-1,2.8513065E-2,-2.8550501E-3,-2.7460901E-2],"categories":[],"categories_nodes":[],"categories_segments":[],"categories_sizes":[],"default_left":[0,0,0,0,0],"id":93,"left_children":[1,3,-1,-1,-1],"loss_changes":[1.1856861E0,2.2966033E-1,0E0,0E0,0E0],"parents":[2147483647,0,0,1,1],"right_children":[2,4,-1,-1,-1],"split_conditions":[1.31E1,6.2E0,2.8513065E-2,-2.8550501E-3,-2.7460901E-2],"split_indices":[1,1,0,0,0],"split_type":[0,0,0,0,0],"sum_hessian":[4.6247344E0,3.328665E0,1.2960696E0,2.142928E0,1.185737E0],"tree_param":{"num_deleted":"0","num_feature":"6","num_nodes":"5","size_leaf_vector":"1"}},{"base_weights":[-1.2371784E-2,-3.1225312E-1,2.8157411E-2,-2.7410582E-2,-2.4856182E-3],"categories":[],"categories_nodes":[],"categories_segments":[],"categories_sizes":[],"default_left":[0,0,0,0,0],"id":94,"left_children":[1,3,-1,-1,-1],"loss_changes":[1.1349275E0,2.3892352E-1,0E0,0E0,0E0],"parents":[2147483647,0,0,1,1],"right_children":[2,4,-1,-1,-1],"split_conditions":[1.31E1,3.4E0,2.8157411E-2,-2.7410582E-2,-2.4856182E-3],"split_indices":[1,1,0,0,0],"split_type":[0,0,0,0,0],"sum_hessian":[4.557075E0,3.2967217E0,1.2603532E0,1.1631973E0,2.1335244E0],"tree_param":{"num_deleted":"0","num_feature":"6","num_nodes":"5","size_leaf_vector":"1"}},{"base_weights":[-1.2196536E-2,-3.0588862E-1,2.7805356E-2,-2.2387684E-3,-2.708352E-2],"categories":[],"categories_nodes":[],"categories_segments":[],"categories_sizes":[],"default_left":[0,0,0,0,0],"id":95,"left_children":[1,3,-1,-1,-1],"loss_changes":[1.0867485E0,2.3838097E-1,0E0,0E0,0E0],"parents":[2147483647,0,0,1,1],"right_children":[2,4,-1,-1,-1],"split_conditions":[1.31E1,6.2E0,2.7805356E-2,-2.2387684E-3,-2.708352E-2],"split_indices":[1,1,0,0,0],"split_type":[0,0,0,0,0],"sum_hessian":[4.491954E0,3.2659197E0,1.2260343E0,2.1143327E0,1.1515869E0],"tree_param":{"num_deleted":"0","num_feature":"6","num_nodes":"5","size_leaf_vector":"1"}},{"base_weights":[-1.1992392E-2,-2.224439E-2,3.6258748E-1,1.1180942E-3,2.7456915E-2],"categories":[],"categories_nodes":[],"categories_segments":[],"categories_sizes":[],"default_left":[0,0,0,0,0],"id":96,"left_children":[1,-1,3,-1,-1],"loss_changes":[1.0415659E0,0E0,2.07403E-1,0E0,0E0],"parents":[2147483647,0,0,2,2],"right_children":[2,-1,4,-1,-1],"split_conditions":[9.41E1,-2.224439E-2,6.2E0,1.1180942E-3,2.7456915E-2],"split_indices":[3,0,1,0,0],"split_type":[0,0,0,0,0],"sum_hessian":[4.4285164E0,1.9672741E0,2.4612422E0,1.268203E0,1.1930392E0],"tree_param":{"num_deleted":"0","num_feature":"6","num_nodes":"5","size_leaf_vector":"1"}},{"base_weights":[-1.0314638E-2,-2.9172865E-1,2.7112445E-2,-2.69128E-2,-1.3955802E-3],"categories":[],"categories_nodes":[],"categories_segments":[],"categories_sizes":[],"default_left":[0,0,0,0,0],"id":97,"left_children":[1,3,-1,-1,-1],"loss_changes":[9.929883E-1,2.5860345E-1,0E0,0E0,0E0],"parents":[2147483647,0,0,1,1],"right_children":[2,4,-1,-1,-1],"split_conditions":[1.31E1,3.4E0,2.7112445E-2,-2.69128E-2,-1.3955802E-3],"split_indices":[1,1,0,0,0],"split_type":[0,0,0,0,0],"sum_hessian":[4.3685117E0,3.207179E0,1.1613327E0,1.1201642E0,2.087015E0],"tree_param":{"num_deleted":"0","num_feature":"6","num_nodes":"5","size_leaf_vector":"1"}},{"base_weights":[-1.0131556E-2,-2.155943E-2,3.567878E-1,1.4761675E-3,2.6771445E-2],"categories":[],"categories_nodes":[],"categories_segments":[],"categories_sizes":[],"default_left":[0,0,0,0,0],"id":98,"left_children":[1,-1,3,-1,-1],"loss_changes":[9.740667E-1,0E0,1.8203896E-1,0E0,0E0],"parents":[2147483647,0,0,2,2],"right_children":[2,-1,4,-1,-1],"split_conditions":[9.41E1,-2.155943E-2,6.2E0,1.4761675E-3,2.6771445E-2],"split_indices":[3,0,1,0,0],"split_type":[0,0,0,0,0],"sum_hessian":[4.309099E0,1.9249595E0,2.3841395E0,1.2533361E0,1.1308035E0],"tree_param":{"num_deleted":"0","num_feature":"6","num_nodes":"5","size_leaf_vector":"1"}},{"base_weights":[-8.431993E-3,-2.1043984E-2,3.504592E-1,1.4351242E-3,2.643461E-2],"categories":[],"categories_nodes":[],"categories_segments":[],"categories_sizes":[],"default_left":[0,0,0,0,0],"id":99,"left_children":[1,-1,3,-1,-1],"loss_changes":[9.251306E-1,0E0,1.7721125E-1,0E0,0E0],"parents":[2147483647,0,0,2,2],"right_children":[2,-1,4,-1,-1],"split_conditions":[9.41E1,-2.1043984E-2,6.2E0,1.4351242E-3,2.643461E-2],"split_indices":[3,0,1,0,0],"split_type":[0,0,0,0,0],"sum_hessian":[4.2534065E0,1.8986747E0,2.3547318E0,1.2532786E0,1.1014532E0],"tree_param":{"num_deleted":"0","num_feature":"6","num_nodes":"5","size_leaf_vector":"1"}},{"base_weights":[-6.7578834E-3,-2.0535681E-2,3.4426072E-1,1.3952926E-3,2.6101684E-2],"categories":[],"categories_nodes":[],"categories_segments":[],"categories_sizes":[],"default_left":[0,0,0,0,0],"id":100,"left_children":[1,-1,3,-1,-1],"loss_changes":[8.7876153E-1,0E0,1.7250827E-1,0E0,0E0],"parents":[2147483647,0,0,2,2],"right_children":[2,-1,4,-1,-1],"split_conditions":[9.41E1,-2.0535681E-2,6.2E0,1.3952926E-3,2.6101684E-2],"split_indices":[3,0,1,0,0],"split_type":[0,0,0,0,0],"sum_hessian":[4.2002096E0,1.8737813E0,2.3264284E0,1.2532282E0,1.0732003E0],"tree_param":{"num_deleted":"0","num_feature":"6","num_nodes":"5","size_leaf_vector":"1"}},{"base_weights":[-5.111609E-3,-2.6244953E-2,2.5889266E-1,-1.4045327E-2,3.2012705E-2],"categories":[],"categories_nodes":[],"categories_segments":[],"categories_sizes":[],"default_left":[0,0,0,0,0],"id":101,"left_children":[1,-1,3,-1,-1],"loss_changes":[8.425216E-1,0E0,1.020703E0,0E0,0E0],"parents":[2147483647,0,0,2,2],"right_children":[2,-1,4,-1,-1],"split_conditions":[3.4E0,-2.6244953E-2,9.41E1,-1.4045327E-2,3.2012705E-2],"split_indices":[1,0,3,0,0],"split_type":[0,0,0,0,0],"sum_hessian":[4.1493773E0,1.0647709E0,3.0846066E0,1.3860828E0,1.6985238E0],"tree_param":{"num_deleted":"0","num_feature":"6","num_nodes":"5","size_leaf_vector":"1"}},{"base_weights":[-6.4922995E-3,-2.5911022E-2,2.5434828E-1,-1.3693041E-2,3.1627472E-2],"categories":[],"categories_nodes":[],"categories_segments":[],"categories_sizes":[],"default_left":[0,0,0,0,0],"id":102,"left_children":[1,-1,3,-1,-1],"loss_changes":[8.0741745E-1,0E0,9.769795E-1,0E0,0E0],"parents":[2147483647,0,0,2,2],"right_children":[2,-1,4,-1,-1],"split_conditions":[3.4E0,-2.5911022E-2,9.41E1,-1.3693041E-2,3.1627472E-2],"split_indices":[1,0,3,0,0],"split_type":[0,0,0,0,0],"sum_hessian":[4.0615196E0,1.0381334E0,3.0233862E0,1.3766266E0,1.6467597E0],"tree_param":{"num_deleted":"0","num_feature":"6","num_nodes":"5","size_leaf_vector":"1"}},{"base_weights":[-7.7957097E-3,-2.5581485E-2,2.4991128E-1,-1.3348246E-2,3.124458E-2],"categories":[],"categories_nodes":[],"categories_segments":[],"categories_sizes":[],"default_left":[0,0,0,0,0],"id":103,"left_children":[1,-1,3,-1,-1],"loss_changes":[7.7411157E-1,0E0,9.352659E-1,0E0,0E0],"parents":[2147483647,0,0,2,2],"right_children":[2,-1,4,-1,-1],"split_conditions":[3.4E0,-2.5581485E-2,9.41E1,-1.3348246E-2,3.124458E-2],"split_indices":[1,0,3,0,0],"split_type":[0,0,0,0,0],"sum_hessian":[3.9772174E0,1.0124656E0,2.9647517E0,1.3676404E0,1.5971115E0],"tree_param":{"num_deleted":"0","num_feature":"6","num_nodes":"5","size_leaf_vector":"1"}},{"base_weights":[-9.022414E-3,-1.8836718E-2,1.620254E-2],"categories":[],"categories_nodes":[],"categories_segments":[],"categories_sizes":[],"default_left":[0,0,0],"id":104,"left_children":[1,-1,-1],"loss_changes":[7.2175664E-1,0E0,0E0],"parents":[2147483647,0,0],"right_children":[2,-1,-1],"split_conditions":[9.41E1,-1.8836718E-2,1.620254E-2],"split_indices":[3,0,0],"split_type":[0,0,0],"sum_hessian":[3.8963103E0,1.7895576E0,2.1067526E0],"tree_param":{"num_deleted":"0","num_feature":"6","num_nodes":"3","size_leaf_vector":"1"}},{"base_weights":[-9.187184E-3,-1.836406E-2,1.573299E-2],"categories":[],"categories_nodes":[],"categories_segments":[],"categories_sizes":[],"default_left":[0,0,0],"id":105,"left_children":[1,-1,-1],"loss_changes":[6.7934096E-1,0E0,0E0],"parents":[2147483647,0,0],"right_children":[2,-1,-1],"split_conditions":[9.41E1,-1.836406E-2,1.573299E-2],"split_indices":[3,0,0],"split_type":[0,0,0],"sum_hessian":[3.861461E0,1.7700773E0,2.0913837E0],"tree_param":{"num_deleted":"0","num_feature":"6","num_nodes":"3","size_leaf_vector":"1"}},{"base_weights":[-9.344412E-3,-1.789963E-2,1.527399E-2],"categories":[],"categories_nodes":[],"categories_segments":[],"categories_sizes":[],"default_left":[0,0,0],"id":106,"left_children":[1,-1,-1],"loss_changes":[6.393564E-1,0E0,0E0],"parents":[2147483647,0,0],"right_children":[2,-1,-1],"split_conditions":[9.41E1,-1.789963E-2,1.527399E-2],"split_indices":[3,0,0],"split_type":[0,0,0],"sum_hessian":[3.8285615E0,1.7516258E0,2.0769358E0],"tree_param":{"num_deleted":"0","num_feature":"6","num_nodes":"3","size_leaf_vector":"1"}},{"base_weights":[-9.4925035E-3,-1.7443566E-2,1.4825634E-2],"categories":[],"categories_nodes":[],"categories_segments":[],"categories_sizes":[],"default_left":[0,0,0],"id":107,"left_children":[1,-1,-1],"loss_changes":[6.01674E-1,0E0,0E0],"parents":[2147483647,0,0],"right_children":[2,-1,-1],"split_conditions":[9.41E1,-1.7443566E-2,1.4825634E-2],"split_indices":[3,0,0],"split_type":[0,0,0],"sum_hessian":[3.7975094E0,1.734148E0,2.0633614E0],"tree_param":{"num_deleted":"0","num_feature":"6","num_nodes":"3","size_leaf_vector":"1"}},{"base_weights":[-9.633212E-3,-1.6995959E-2,1.43878E-2],"categories":[],"categories_nodes":[],"categories_segments":[],"categories_sizes":[],"default_left":[0,0,0],"id":108,"left_children":[1,-1,-1],"loss_changes":[5.661621E-1,0E0,0E0],"parents":[2147483647,0,0],"right_children":[2,-1,-1],"split_conditions":[9.41E1,-1.6995959E-2,1.43878E-2],"split_indices":[3,0,0],"split_type":[0,0,0],"sum_hessian":[3.7681913E0,1.7175914E0,2.0505998E0],"tree_param":{"num_deleted":"0","num_feature":"6","num_nodes":"3","size_leaf_vector":"1"}},{"base_weights":[-9.7648725E-3,-1.6556876E-2,1.396054E-2],"categories":[],"categories_nodes":[],"categories_segments":[],"categories_sizes":[],"default_left":[0,0,0],"id":109,"left_children":[1,-1,-1],"loss_changes":[5.3270364E-1,0E0,0E0],"parents":[2147483647,0,0],"right_children":[2,-1,-1],"split_conditions":[9.41E1,-1.6556876E-2,1.396054E-2],"split_indices":[3,0,0],"split_type":[0,0,0],"sum_hessian":[3.740517E0,1.7019078E0,2.038609E0],"tree_param":{"num_deleted":"0","num_feature":"6","num_nodes":"3","size_leaf_vector":"1"}},{"base_weights":[-9.889659E-3,-1.61264E-2,1.354368E-2],"categories":[],"categories_nodes":[],"categories_segments":[],"categories_sizes":[],"default_left":[0,0,0],"id":110,"left_children":[1,-1,-1],"loss_changes":[5.011804E-1,0E0,0E0],"parents":[2147483647,0,0],"right_children":[2,-1,-1],"split_conditions":[9.41E1,-1.61264E-2,1.354368E-2],"split_indices":[3,0,0],"split_type":[0,0,0],"sum_hessian":[3.7143831E0,1.6870492E0,2.027334E0],"tree_param":{"num_deleted":"0","num_feature":"6","num_nodes":"3","size_leaf_vector":"1"}},{"base_weights":[-1.0001068E-2,-1.5704552E-2,1.3137507E-2],"categories":[],"categories_nodes":[],"categories_segments":[],"categories_sizes":[],"default_left":[0,0,0],"id":111,"left_children":[1,-1,-1],"loss_changes":[4.7149792E-1,0E0,0E0],"parents":[2147483647,0,0],"right_children":[2,-1,-1],"split_conditions":[9.41E1,-1.5704552E-2,1.3137507E-2],"split_indices":[3,0,0],"split_type":[0,0,0],"sum_hessian":[3.6897304E0,1.6729711E0,2.0167592E0],"tree_param":{"num_deleted":"0","num_feature":"6","num_nodes":"3","size_leaf_vector":"1"}},{"base_weights":[-1.0106819E-2,-2.5435274E-2,2.646863E-1,-9.458588E-3,2.9422963E-2],"categories":[],"categories_nodes":[],"categories_segments":[],"categories_sizes":[],"default_left":[0,0,0,0,0],"id":112,"left_children":[1,-1,3,-1,-1],"loss_changes":[7.7400345E-1,0E0,6.5005267E-1,0E0,0E0],"parents":[2147483647,0,0,2,2],"right_children":[2,-1,4,-1,-1],"split_conditions":[3.4E0,-2.5435274E-2,9.41E1,-9.458588E-3,2.9422963E-2],"split_indices":[1,0,3,0,0],"split_type":[0,0,0,0,0],"sum_hessian":[3.6664414E0,1.00027E0,2.6661716E0,1.2831734E0,1.3829981E0],"tree_param":{"num_deleted":"0","num_feature":"6","num_nodes":"5","size_leaf_vector":"1"}},{"base_weights":[-1.0880132E-2,-1.7679118E-2,2.12184E-1,-1.0510566E-2,2.7374579E-2],"categories":[],"categories_nodes":[],"categories_segments":[],"categories_sizes":[],"default_left":[0,0,0,0,0],"id":113,"left_children":[1,-1,3,-1,-1],"loss_changes":[4.2657074E-1,0E0,5.981318E-1,0E0,0E0],"parents":[2147483647,0,0,2,2],"right_children":[2,-1,4,-1,-1],"split_conditions":[5.3E0,-1.7679118E-2,9.41E1,-1.0510566E-2,2.7374579E-2],"split_indices":[1,0,3,0,0],"split_type":[0,0,0,0,0],"sum_hessian":[3.5987072E0,1.1881659E0,2.4105415E0,1.2318404E0,1.178701E0],"tree_param":{"num_deleted":"0","num_feature":"6","num_nodes":"5","size_leaf_vector":"1"}},{"base_weights":[-1.0565724E-2,-1.7304495E-2,2.0886028E-1,-1.0245121E-2,2.7029673E-2],"categories":[],"categories_nodes":[],"categories_segments":[],"categories_sizes":[],"default_left":[0,0,0,0,0],"id":114,"left_children":[1,-1,3,-1,-1],"loss_changes":[4.0722266E-1,0E0,5.73909E-1,0E0,0E0],"parents":[2147483647,0,0,2,2],"right_children":[2,-1,4,-1,-1],"split_conditions":[5.3E0,-1.7304495E-2,9.41E1,-1.0245121E-2,2.7029673E-2],"split_indices":[1,0,3,0,0],"split_type":[0,0,0,0,0],"sum_hessian":[3.5493858E0,1.1751751E0,2.3742106E0,1.2266134E0,1.1475973E0],"tree_param":{"num_deleted":"0","num_feature":"6","num_nodes":"5","size_leaf_vector":"1"}},{"base_weights":[-1.0196103E-2,-1.693606E-2,2.0563318E-1,-9.985836E-3,2.6688857E-2],"categories":[],"categories_nodes":[],"categories_segments":[],"categories_sizes":[],"default_left":[0,0,0,0,0],"id":115,"left_children":[1,-1,3,-1,-1],"loss_changes":[3.8887468E-1,0E0,5.507772E-1,0E0,0E0],"parents":[2147483647,0,0,2,2],"right_children":[2,-1,4,-1,-1],"split_conditions":[5.3E0,-1.693606E-2,9.41E1,-9.985836E-3,2.6688857E-2],"split_indices":[1,0,3,0,0],"split_type":[0,0,0,0,0],"sum_hessian":[3.5020926E0,1.1627761E0,2.3393166E0,1.2216324E0,1.1176841E0],"tree_param":{"num_deleted":"0","num_feature":"6","num_nodes":"5","size_leaf_vector":"1"}},{"base_weights":[-9.7800465E-3,-1.4016121E-2,1.2132592E-2],"categories":[],"categories_nodes":[],"categories_segments":[],"categories_sizes":[],"default_left":[0,0,0],"id":116,"left_children":[1,-1,-1],"loss_changes":[3.7238514E-1,0E0,0E0],"parents":[2147483647,0,0],"right_children":[2,-1,-1],"split_conditions":[9.41E1,-1.4016121E-2,1.2132592E-2],"split_indices":[3,0,0],"split_type":[0,0,0],"sum_hessian":[3.4567094E0,1.6151716E0,1.8415378E0],"tree_param":{"num_deleted":"0","num_feature":"6","num_nodes":"3","size_leaf_vector":"1"}},{"base_weights":[-9.7590685E-3,-1.6652238E-2,2.0486662E-1,-9.3763815E-3,2.6198769E-2],"categories":[],"categories_nodes":[],"categories_segments":[],"categories_sizes":[],"default_left":[0,0,0,0,0],"id":117,"left_children":[1,-1,3,-1,-1],"loss_changes":[3.7616804E-1,0E0,5.097763E-1,0E0,0E0],"parents":[2147483647,0,0,2,2],"right_children":[2,-1,4,-1,-1],"split_conditions":[5.3E0,-1.6652238E-2,9.41E1,-9.3763815E-3,2.6198769E-2],"split_indices":[1,0,3,0,0],"split_type":[0,0,0,0,0],"sum_hessian":[3.4380848E0,1.1516438E0,2.286441E0,1.2104018E0,1.0760392E0],"tree_param":{"num_deleted":"0","num_feature":"6","num_nodes":"5","size_leaf_vector":"1"}},{"base_weights":[-9.2666745E-3,-1.6295161E-2,2.0177771E-1,-9.137551E-3,2.5867919E-2],"categories":[],"categories_nodes":[],"categories_segments":[],"categories_sizes":[],"default_left":[0,0,0,0,0],"id":118,"left_children":[1,-1,3,-1,-1],"loss_changes":[3.5946798E-1,0E0,4.895392E-1,0E0,0E0],"parents":[2147483647,0,0,2,2],"right_children":[2,-1,4,-1,-1],"split_conditions":[5.3E0,-1.6295161E-2,9.41E1,-9.137551E-3,2.5867919E-2],"split_indices":[1,0,3,0,0],"split_type":[0,0,0,0,0],"sum_hessian":[3.395223E0,1.1402419E0,2.254981E0,1.2061802E0,1.048801E0],"tree_param":{"num_deleted":"0","num_feature":"6","num_nodes":"5","size_leaf_vector":"1"}},{"base_weights":[-8.732825E-3,-1.5944248E-2,1.9877583E-1,-8.904446E-3,2.5541205E-2],"categories":[],"categories_nodes":[],"categories_segments":[],"categories_sizes":[],"default_left":[0,0,0,0,0],"id":119,"left_children":[1,-1,3,-1,-1],"loss_changes":[3.4361184E-1,0E0,4.7019923E-1,0E0,0E0],"parents":[2147483647,0,0,2,2],"right_children":[2,-1,4,-1,-1],"split_conditions":[5.3E0,-1.5944248E-2,9.41E1,-8.904446E-3,2.5541205E-2],"split_indices":[1,0,3,0,0],"split_type":[0,0,0,0,0],"sum_hessian":[3.3540783E0,1.1293575E0,2.224721E0,1.202154E0,1.0225669E0],"tree_param":{"num_deleted":"0","num_feature":"6","num_nodes":"5","size_leaf_vector":"1"}},{"base_weights":[-8.161584E-3,-1.5599524E-2,9.792883E-3],"categories":[],"categories_nodes":[],"categories_segments":[],"categories_sizes":[],"default_left":[0,0,0],"id":120,"left_children":[1,-1,-1],"loss_changes":[3.2855245E-1,0E0,0E0],"parents":[2147483647,0,0],"right_children":[2,-1,-1],"split_conditions":[5.3E0,-1.5599524E-2,9.792883E-3],"split_indices":[1,0,0],"split_type":[0,0,0],"sum_hessian":[3.3145664E0,1.1189647E0,2.1956017E0],"tree_param":{"num_deleted":"0","num_feature":"6","num_nodes":"3","size_leaf_vector":"1"}},{"base_weights":[-9.1435835E-3,-1.2883464E-2,1.14882095E-2],"categories":[],"categories_nodes":[],"categories_segments":[],"categories_sizes":[],"default_left":[0,0,0],"id":121,"left_children":[1,-1,-1],"loss_changes":[3.144754E-1,0E0,0E0],"parents":[2147483647,0,0],"right_children":[2,-1,-1],"split_conditions":[9.41E1,-1.2883464E-2,1.14882095E-2],"split_indices":[3,0,0],"split_type":[0,0,0],"sum_hessian":[3.2993426E0,1.5786301E0,1.7207125E0],"tree_param":{"num_deleted":"0","num_feature":"6","num_nodes":"3","size_leaf_vector":"1"}},{"base_weights":[-9.0469215E-3,-1.5341473E-2,9.587965E-3],"categories":[],"categories_nodes":[],"categories_segments":[],"categories_sizes":[],"default_left":[0,0,0],"id":122,"left_children":[1,-1,-1],"loss_changes":[3.1497467E-1,0E0,0E0],"parents":[2147483647,0,0],"right_children":[2,-1,-1],"split_conditions":[5.3E0,-1.5341473E-2,9.587965E-3],"split_indices":[1,0,0],"split_type":[0,0,0],"sum_hessian":[3.2834759E0,1.1097707E0,2.1737053E0],"tree_param":{"num_deleted":"0","num_feature":"6","num_nodes":"3","size_leaf_vector":"1"}},{"base_weights":[-9.984524E-3,-1.2646508E-2,1.1250654E-2],"categories":[],"categories_nodes":[],"categories_segments":[],"categories_sizes":[],"default_left":[0,0,0],"id":123,"left_children":[1,-1,-1],"loss_changes":[3.0062908E-1,0E0,0E0],"parents":[2147483647,0,0],"right_children":[2,-1,-1],"split_conditions":[9.41E1,-1.2646508E-2,1.1250654E-2],"split_indices":[3,0,0],"split_type":[0,0,0],"sum_hessian":[3.268865E0,1.5697322E0,1.6991329E0],"tree_param":{"num_deleted":"0","num_feature":"6","num_nodes":"3","size_leaf_vector":"1"}},{"base_weights":[-9.849955E-3,-1.5088125E-2,9.390521E-3],"categories":[],"categories_nodes":[],"categories_segments":[],"categories_sizes":[],"default_left":[0,0,0],"id":124,"left_children":[1,-1,-1],"loss_changes":[3.0210787E-1,0E0,0E0],"parents":[2147483647,0,0],"right_children":[2,-1,-1],"split_conditions":[5.3E0,-1.5088125E-2,9.390521E-3],"split_indices":[1,0,0],"split_type":[0,0,0],"sum_hessian":[3.2536526E0,1.1009923E0,2.1526601E0],"tree_param":{"num_deleted":"0","num_feature":"6","num_nodes":"3","size_leaf_vector":"1"}},{"base_weights":[-1.0746639E-2,-1.241444E-2,1.1021022E-2],"categories":[],"categories_nodes":[],"categories_segments":[],"categories_sizes":[],"default_left":[0,0,0],"id":125,"left_children":[1,-1,-1],"loss_changes":[2.8753355E-1,0E0,0E0],"parents":[2147483647,0,0],"right_children":[2,-1,-1],"split_conditions":[9.41E1,-1.241444E-2,1.1021022E-2],"split_indices":[3,0,0],"split_type":[0,0,0],"sum_hessian":[3.239618E0,1.561248E0,1.6783702E0],"tree_param":{"num_deleted":"0","num_feature":"6","num_nodes":"3","size_leaf_vector":"1"}},{"base_weights":[-1.0576063E-2,-1.4839331E-2,9.200152E-3],"categories":[],"categories_nodes":[],"categories_segments":[],"categories_sizes":[],"default_left":[0,0,0],"id":126,"left_children":[1,-1,-1],"loss_changes":[2.8990403E-1,0E0,0E0],"parents":[2147483647,0,0],"right_children":[2,-1,-1],"split_conditions":[5.3E0,-1.4839331E-2,9.200152E-3],"split_indices":[1,0,0],"split_type":[0,0,0],"sum_hessian":[3.2250295E0,1.0926106E0,2.1324189E0],"tree_param":{"num_deleted":"0","num_feature":"6","num_nodes":"3","size_leaf_vector":"1"}},{"base_weights":[-1.1429099E-2,-1.21871475E-2,1.0799326E-2],"categories":[],"categories_nodes":[],"categories_segments":[],"categories_sizes":[],"default_left":[0,0,0],"id":127,"left_children":[1,-1,-1],"loss_changes":[2.7514964E-1,0E0,0E0],"parents":[2147483647,0,0],"right_children":[2,-1,-1],"split_conditions":[9.41E1,-1.21871475E-2,1.0799326E-2],"split_indices":[3,0,0],"split_type":[0,0,0],"sum_hessian":[3.2115636E0,1.5531577E0,1.6584058E0],"tree_param":{"num_deleted":"0","num_feature":"6","num_nodes":"3","size_leaf_vector":"1"}},{"base_weights":[-1.1229783E-2,-1.4595029E-2,9.016546E-3],"categories":[],"categories_nodes":[],"categories_segments":[],"categories_sizes":[],"default_left":[0,0,0],"id":128,"left_children":[1,-1,-1],"loss_changes":[2.783219E-1,0E0,0E0],"parents":[2147483647,0,0],"right_children":[2,-1,-1],"split_conditions":[5.3E0,-1.4595029E-2,9.016546E-3],"split_indices":[1,0,0],"split_type":[0,0,0],"sum_hessian":[3.1975472E0,1.0846049E0,2.1129422E0],"tree_param":{"num_deleted":"0","num_feature":"6","num_nodes":"3","size_leaf_vector":"1"}},{"base_weights":[-1.204225E-2,-1.1964511E-2,1.0584888E-2],"categories":[],"categories_nodes":[],"categories_segments":[],"categories_sizes":[],"default_left":[0,0,0],"id":129,"left_children":[1,-1,-1],"loss_changes":[2.6342183E-1,0E0,0E0],"parents":[2147483647,0,0],"right_children":[2,-1,-1],"split_conditions":[9.41E1,-1.1964511E-2,1.0584888E-2],"split_indices":[3,0,0],"split_type":[0,0,0],"sum_hessian":[3.184618E0,1.545443E0,1.6391749E0],"tree_param":{"num_deleted":"0","num_feature":"6","num_nodes":"3","size_leaf_vector":"1"}},{"base_weights":[-1.1811615E-2,-1.4355089E-2,8.839585E-3],"categories":[],"categories_nodes":[],"categories_segments":[],"categories_sizes":[],"default_left":[0,0,0],"id":130,"left_children":[1,-1,-1],"loss_changes":[2.6732668E-1,0E0,0E0],"parents":[2147483647,0,0],"right_children":[2,-1,-1],"split_conditions":[5.3E0,-1.4355089E-2,8.839585E-3],"split_indices":[1,0,0],"split_type":[0,0,0],"sum_hessian":[3.171164E0,1.0769576E0,2.0942066E0],"tree_param":{"num_deleted":"0","num_feature":"6","num_nodes":"3","size_leaf_vector":"1"}},{"base_weights":[-1.2591501E-2,-1.40405595E-2,8.552112E-3],"categories":[],"categories_nodes":[],"categories_segments":[],"categories_sizes":[],"default_left":[0,0,0],"id":131,"left_children":[1,-1,-1],"loss_changes":[2.5286502E-1,0E0,0E0],"parents":[2147483647,0,0],"right_children":[2,-1,-1],"split_conditions":[5.3E0,-1.40405595E-2,8.552112E-3],"split_indices":[1,0,0],"split_type":[0,0,0],"sum_hessian":[3.1587222E0,1.0686442E0,2.090078E0],"tree_param":{"num_deleted":"0","num_feature":"6","num_nodes":"3","size_leaf_vector":"1"}},{"base_weights":[-1.3330471E-2,-1.1851607E-2,1.0474934E-2],"categories":[],"categories_nodes":[],"categories_segments":[],"categories_sizes":[],"default_left":[0,0,0],"id":132,"left_children":[1,-1,-1],"loss_changes":[2.563706E-1,0E0,0E0],"parents":[2147483647,0,0],"right_children":[2,-1,-1],"split_conditions":[9.41E1,-1.1851607E-2,1.0474934E-2],"split_indices":[3,0,0],"split_type":[0,0,0],"sum_hessian":[3.1469223E0,1.5385793E0,1.608343E0],"tree_param":{"num_deleted":"0","num_feature":"6","num_nodes":"3","size_leaf_vector":"1"}},{"base_weights":[-1.3039831E-2,-1.381206E-2,8.39181E-3],"categories":[],"categories_nodes":[],"categories_segments":[],"categories_sizes":[],"default_left":[0,0,0],"id":133,"left_children":[1,-1,-1],"loss_changes":[2.431608E-1,0E0,0E0],"parents":[2147483647,0,0],"right_children":[2,-1,-1],"split_conditions":[5.3E0,-1.381206E-2,8.39181E-3],"split_indices":[1,0,0],"split_type":[0,0,0],"sum_hessian":[3.1338108E0,1.0616755E0,2.0721352E0],"tree_param":{"num_deleted":"0","num_feature":"6","num_nodes":"3","size_leaf_vector":"1"}},{"base_weights":[-1.3744861E-2,-1.1632176E-2,1.0271941E-2],"categories":[],"categories_nodes":[],"categories_segments":[],"categories_sizes":[],"default_left":[0,0,0],"id":134,"left_children":[1,-1,-1],"loss_changes":[2.4558574E-1,0E0,0E0],"parents":[2147483647,0,0],"right_children":[2,-1,-1],"split_conditions":[9.41E1,-1.1632176E-2,1.0271941E-2],"split_indices":[3,0,0],"split_type":[0,0,0],"sum_hessian":[3.1224637E0,1.5315231E0,1.5909405E0],"tree_param":{"num_deleted":"0","num_feature":"6","num_nodes":"3","size_leaf_vector":"1"}},{"base_weights":[-1.3435824E-2,-1.3587673E-2,8.236779E-3],"categories":[],"categories_nodes":[],"categories_segments":[],"categories_sizes":[],"default_left":[0,0,0],"id":135,"left_children":[1,-1,-1],"loss_changes":[2.3392244E-1,0E0,0E0],"parents":[2147483647,0,0],"right_children":[2,-1,-1],"split_conditions":[5.3E0,-1.3587673E-2,8.236779E-3],"split_indices":[1,0,0],"split_type":[0,0,0],"sum_hessian":[3.1098475E0,1.055018E0,2.0548296E0],"tree_param":{"num_deleted":"0","num_feature":"6","num_nodes":"3","size_leaf_vector":"1"}},{"base_weights":[-1.4113494E-2,-1.1417362E-2,1.0074888E-2],"categories":[],"categories_nodes":[],"categories_segments":[],"categories_sizes":[],"default_left":[0,0,0],"id":136,"left_children":[1,-1,-1],"loss_changes":[2.3534521E-1,0E0,0E0],"parents":[2147483647,0,0],"right_children":[2,-1,-1],"split_conditions":[9.41E1,-1.1417362E-2,1.0074888E-2],"split_indices":[3,0,0],"split_type":[0,0,0],"sum_hessian":[3.0989132E0,1.5247929E0,1.5741203E0],"tree_param":{"num_deleted":"0","num_feature":"6","num_nodes":"3","size_leaf_vector":"1"}},{"base_weights":[-1.3777417E-2,-1.3367309E-2,8.08707E-3],"categories":[],"categories_nodes":[],"categories_segments":[],"categories_sizes":[],"default_left":[0,0,0],"id":137,"left_children":[1,-1,-1],"loss_changes":[2.2512878E-1,0E0,0E0],"parents":[2147483647,0,0],"right_children":[2,-1,-1],"split_conditions":[5.3E0,-1.3367309E-2,8.08707E-3],"split_indices":[1,0,0],"split_type":[0,0,0],"sum_hessian":[3.086808E0,1.0486565E0,2.0381515E0],"tree_param":{"num_deleted":"0","num_feature":"6","num_nodes":"3","size_leaf_vector":"1"}},{"base_weights":[-1.4427256E-2,-1.1207047E-2,9.884292E-3],"categories":[],"categories_nodes":[],"categories_segments":[],"categories_sizes":[],"default_left":[0,0,0],"id":138,"left_children":[1,-1,-1],"loss_changes":[2.256345E-1,0E0,0E0],"parents":[2147483647,0,0],"right_children":[2,-1,-1],"split_conditions":[9.41E1,-1.1207047E-2,9.884292E-3],"split_indices":[3,0,0],"split_type":[0,0,0],"sum_hessian":[3.076275E0,1.5183729E0,1.5579022E0],"tree_param":{"num_deleted":"0","num_feature":"6","num_nodes":"3","size_leaf_vector":"1"}},{"base_weights":[-1.4073423E-2,-1.3150855E-2,7.942121E-3],"categories":[],"categories_nodes":[],"categories_segments":[],"categories_sizes":[],"default_left":[0,0,0],"id":139,"left_children":[1,-1,-1],"loss_changes":[2.167454E-1,0E0,0E0],"parents":[2147483647,0,0],"right_children":[2,-1,-1],"split_conditions":[5.3E0,-1.3150855E-2,7.942121E-3],"split_indices":[1,0,0],"split_type":[0,0,0],"sum_hessian":[3.064627E0,1.0425775E0,2.0220494E0],"tree_param":{"num_deleted":"0","num_feature":"6","num_nodes":"3","size_leaf_vector":"1"}},{"base_weights":[-1.4694797E-2,-1.100115E-2,9.699576E-3],"categories":[],"categories_nodes":[],"categories_segments":[],"categories_sizes":[],"default_left":[0,0,0],"id":140,"left_children":[1,-1,-1],"loss_changes":[2.1641402E-1,0E0,0E0],"parents":[2147483647,0,0],"right_children":[2,-1,-1],"split_conditions":[9.41E1,-1.100115E-2,9.699576E-3],"split_indices":[3,0,0],"split_type":[0,0,0],"sum_hessian":[3.0544863E0,1.5122484E0,1.5422378E0],"tree_param":{"num_deleted":"0","num_feature":"6","num_nodes":"3","size_leaf_vector":"1"}},{"base_weights":[-1.4327103E-2,-1.2938258E-2,7.801705E-3],"categories":[],"categories_nodes":[],"categories_segments":[],"categories_sizes":[],"default_left":[0,0,0],"id":141,"left_children":[1,-1,-1],"loss_changes":[2.0874886E-1,0E0,0E0],"parents":[2147483647,0,0],"right_children":[2,-1,-1],"split_conditions":[5.3E0,-1.2938258E-2,7.801705E-3],"split_indices":[1,0,0],"split_type":[0,0,0],"sum_hessian":[3.043264E0,1.0367669E0,2.0064971E0],"tree_param":{"num_deleted":"0","num_feature":"6","num_nodes":"3","size_leaf_vector":"1"}},{"base_weights":[-1.4923308E-2,-1.0799577E-2,9.520243E-3],"categories":[],"categories_nodes":[],"categories_segments":[],"categories_sizes":[],"default_left":[0,0,0],"id":142,"left_children":[1,-1,-1],"loss_changes":[2.0764838E-1,0E0,0E0],"parents":[2147483647,0,0],"right_children":[2,-1,-1],"split_conditions":[9.41E1,-1.0799577E-2,9.520243E-3],"split_indices":[3,0,0],"split_type":[0,0,0],"sum_hessian":[3.03349E0,1.506405E0,1.527085E0],"tree_param":{"num_deleted":"0","num_feature":"6","num_nodes":"3","size_leaf_vector":"1"}},{"base_weights":[-1.4539014E-2,-1.2729453E-2,7.6657454E-3],"categories":[],"categories_nodes":[],"categories_segments":[],"categories_sizes":[],"default_left":[0,0,0],"id":143,"left_children":[1,-1,